-0.2367859624 0.0541647577 0.2881608777 -0.9733611585 -0.5919006459 0.6832226247 -0.3157086843 0.8198320741 -0.1900452274 0.2385453752 0.6724584656 -0.1817386831 -0.4281666667 -0.1221789203 0.1166252768 0.0139416342 0.1416914576 0.4974598322 -0.1727863526 0.5049744636 -0.4241511011 -0.1873710038 0.3496507369 0.0558440090 -0.1176960184 0.3251702083 -0.2749703152 -0.4702651432 -0.4302669426 0.1437830952 0.0162848278 0.4472547068 -0.6747066678 0.1718876044 -0.0870186914 0.2044048243 -0.1227531674 0.2803355898 0.8181237089 0.4173976410 -0.3731640129 0.1609401832 0.3002872985 -0.4747560627 -0.3781818291 0.2174375451 0.0036336021 0.5852381262 0.3946761296 0.0697045118 -0.5375201303 -0.6449185604 -0.3966847208 0.1256883786 -0.3260444470 -1.0420348609 -0.1455313567 -0.0456719612 -0.4110350543 0.2302437010 -0.5147564450 -0.0892543125 -0.4929791444 -0.2808502831 0.1757922293
0.1011235035 -0.0823112740 0.6441110458 -0.3905424151 0.3913622903 0.4499552639 -0.1197938393 -0.5913393182 0.2087637550 -0.4798113551 0.1075805512 -0.1832994300 0.1300903278 0.1512427232 -0.2588280185 0.3070691454 -0.2258306731 0.5053972720 -0.7888303291 0.2685291236 0.3354255571 -0.0546033430 -0.3457837140 -0.3214870244 0.0530086307 -0.4456106574 0.7810325023 -0.2194585683 0.1497080621 0.1716280594 0.2209321083 0.9196510564 -0.3875140720 0.1899150024 0.3879905448 0.8803454633 -0.0089017223 0.5343467442 -0.0169127183 0.0272722304 0.0257235332 -0.5198705520 -0.2017020692 0.1119197731 0.1374869876 0.0541882397 -0.5376207992 -0.9798637958 -0.5548429982 0.0558375838 -0.0822062028 -0.3116652046 -0.0822586272 0.6181595210 -0.2098188690 -0.0458712586 0.7996853763 0.1548773605 0.1106294027 -0.4113690998 0.3384776140 0.4743367028 0.2403536697 0.3234295958 0.3067769549
0.0477609145 -0.1317987731 0.0690503169 0.5039833001 1.0230374089 0.1762392574 0.0965485162 -0.0095905782 0.2136579133 -0.5335823602 0.6113450374 0.2200066553 0.2218209875 -1.1052592798 0.6874592247 -0.5631312920 -0.1167997437 -0.7559450640 -0.3016576931 0.6534849518 -0.2911884041 0.7532962005 0.1726552297 -1.2566040630 -0.1302117115 0.6339984101 -0.2704415085 0.3505101973 0.1809410283 0.0785872129 0.1444759499 0.1666304821 -0.3750936515 0.2961906379 0.2755063667 -0.1811042500 -0.0067695062 0.5063216116 -0.2559306575 1.1991601117 -0.0188306165 0.4709483494 -1.5795281404 0.0293827070 -0.0149256883 -0.6684515102 -0.0440177795 -0.2437661174 0.2493949239 -0.0472655717 -0.4147991360 0.6187840108 -0.8074931873 0.6528557488 0.0736101683 -0.2595865344 -0.5264235407 -0.4115640019 0.1610861986 0.1388378477 0.3729584084 0.5423939888 -0.3201213293 0.3156246811 0.5370113665
0.0795933933 -0.3522259690 -0.6840721142 -0.0451740282 -0.3001543288 0.1180345161 -0.0444768293 -0.3950609881 -0.0306229709 -0.0033293717 -0.2873715033 0.7079627740 0.3614814833 0.5320219480 0.8262683577 -0.1150825945 0.2105240409 -0.1611720178 -0.9932048024 0.0792819736 0.6157170329 -0.1602376139 0.0854754427 0.2198262506 -0.1756004473 -0.3968942400 -0.2483016957 0.7929450385 0.5653255831 -0.3570586284 0.2345797204 0.0036388096 1.0782470781 0.3194768390 0.5374013797 0.3018972746 -0.0001675996 -0.0649113197 -0.3114834766 -0.2767217047 -0.9362479826 -0.5826544684 0.1483934338 -0.1521951185 0.3504229346 -0.2422868219 -0.0705716706 0.0098645421 -0.4225773361 0.1467559289 0.2623221850 0.2325934101 0.4092257462 0.2788698863 1.0812798158 -0.0238656332 0.2501634288 -0.3146573120 0.1157375167 1.3177615411 -0.4661656070 -0.8137732948 -1.4412420874 -1.2424488354 -0.0800443613
-0.0548600531 0.1256037878 0.7170875508 -0.3859764679 0.5552916789 -1.0472826111 0.0772105321 -0.4689038449 -1.2599609113 0.3163684174 -0.8751898355 -0.8989187791 -0.9481982826 0.1142568278 -0.4816892392 -0.2048804104 -0.6887261892 0.2822884354 0.5108006982 -0.9232189479 -0.1438653487 0.1438863684 0.1202904689 0.2258731395 -0.4790653430 0.0433789555 0.2749153287 -0.3385856612 0.5668250791 -0.3425246645 0.5757096115 0.1876702471 0.4157406258 -0.6280728080 0.0943768682 1.1515505321 -0.5806065485 0.3234187224 0.1738901542 -0.1584435545 0.2947460348 0.3545456764 0.0019838309 0.5003295246 -1.0381271755 0.4015361966 0.2966396934 -0.2001180911 0.5161261785 0.0553107446 -0.2606623836 -0.3170274580 0.5683445956 -0.0787042547 0.7414887849 0.0698468907 0.1569855073 0.4765951003 -0.2266039325 0.0528975251 -0.3941778285 -0.1639826341 0.6437833485 0.2190255477 0.4279728000
0.5572035503 0.1352273698 -0.6565539582 0.0625621081 0.0413641726 0.6909581535 -0.3517745781 -0.0248932520 0.3185038505 -0.0957853381 -0.2124007483 -0.7518879556 0.1496918746 -0.2332162713 -0.8202940829 0.1789968275 0.3500648067 -1.1060940745 0.7220517683 -0.0499932364 0.5265387281 0.1109490767 -0.0495320993 0.2320667071 0.2363491545 0.8802690925 0.4497433933 0.1675972379 -0.1620750093 0.6712110375 -0.6504520176 -0.0633042607 0.3719672441 0.6298694146 0.4427027028 -0.7273221102 0.0091961402 0.1422031800 -0.0469204437 -0.7229746756 0.1932714086 -0.0570981744 0.8599345463 0.0936080038 0.7887201982 -0.5830633802 0.0642167463 0.1809938234 -1.0966610275 0.0771257474 0.0821441227 -0.0403533926 1.0297181717 -1.3194460803 -1.0530854815 0.0754727614 0.4493416376 1.0213658844 0.5689773948 0.0746378968 -0.6156323694 -0.0802596151 -0.5901144454 0.6160032092 -1.0570734866
-0.1484733254 0.0212773543 0.2519590593 -0.4146751062 0.3439204875 0.1676737717 -0.1385124182 -0.6071716247 0.3708178991 0.2011753322 0.1278476349 0.6123707246 -1.0024225797 -0.4631035472 -1.0378615127 0.7991617700 0.0892594094 0.0317256282 0.4649820752 -0.5080579386 -0.4816604179 0.1792093740 -0.0564000417 0.1433310487 -0.1445056810 -0.7083515429 -0.1991512954 -0.0668922339 -0.1672172809 1.0036763801 -0.1051273678 0.1513134772 -0.8438451676 0.1037664150 0.0190825619 0.0409906698 0.3509907183 0.4639907857 -0.2462866057 0.2616613054 0.1092794956 0.3620964037 0.6246211949 -0.3005756317 0.2813725876 0.4496233319 -0.3740064060 0.3051229360 0.3838955168 -0.0158478690 -0.6005008817 0.3217099707 -0.3272116737 0.1690048340 -0.1835509060 0.1815151403 0.4744813859 -0.2375690683 -0.6793679806 0.3293171145 0.8776209423 0.4449644915 -0.3543050777 -0.5920856806 -1.1547500970
0.0459403065 -0.1013762194 -0.0267016510 0.7029536175 -0.6943026879 0.0858776176 -0.0212938734 -0.1501329721 0.3447502435 -0.1293597136 -0.4921839505 0.6275603910 0.0726485562 0.5257071257 0.5734429600 -0.2084051619 -0.0669317899 0.2494871687 -0.2887655193 0.3633618961 0.3315235304 0.8630536442 -0.0264973013 0.6218112580 0.6695121488 0.6986759004 -0.1371578410 0.7175705530 -0.7676924378 -0.1076598407 0.2754070819 -0.0448728096 -0.1175886430 0.3871091712 -1.2686220232 0.2216166616 -0.4094368521 -0.7146680226 -0.6038289663 -0.2894415099 0.2215344245 0.0297970834 -0.0933240682 -0.0957626151 -0.2387193931 1.1902656284 0.4839628971 -0.1902490971 -0.2937247682 0.2513446436 -0.3113028939 0.6789261110 -0.9208855593 0.1588536016 0.7579609015 -0.4606415800 -0.1622908866 0.0146549543 -0.1120742088 -0.2521406934 -0.2771614102 -0.1196043507 0.5093322559 0.5099602591 0.3361040862
0.1432180333 0.3099372140 -0.1606189604 -0.1074988041 -0.5678566978 -1.2064062115 -0.1077096742 0.5715352035 0.2177780057 0.3936594851 0.3627288300 -0.8684879768 0.1781448588 -0.3172019781 0.2461916855 -0.2192775725 0.3123686333 -0.0179019195 0.5666477625 -0.6476294159 0.4911069863 -0.7496425672 -1.4405509473 0.0407996954 0.1340874191 -0.8973924592 -0.7591384545 -0.1582971744 0.2237760839 0.2362221625 0.0602835245 -1.3421607682 0.0185157547 -0.5023806572 0.5194102408 -0.4418420760 -0.1191422703 -0.1221002681 -0.0507151449 0.4289616962 0.8940123842 0.2367227349 0.1129688271 0.3034263989 0.1839217669 -0.4263740093 0.5554620911 0.6608222331 -0.3508445443 0.0562226185 0.4704738330 -0.2206106359 -0.6734543838 -0.2722721861 0.0267041801 0.6978929354 -0.3046579415 -0.5031844730 0.0081114914 -0.3827891613 -0.8151102650 0.7561957743 0.0992157856 -0.1284296117 0.0589241647
-0.2251404526 0.3277160679 0.0698122997 -0.2804288445 -0.0785523036 0.0458338451 0.0196454518 0.3222193738 -0.0750323535 0.2443171982 -0.1869958439 -0.1298773923 0.7677294661 0.3222783369 0.3651138819 0.4747434881 -0.1031444027 0.4371588981 -0.0474742836 -0.3526639382 -0.4834094080 0.3116006249 0.0792717977 0.0373569704 0.0014538796 0.0027367003 0.0683073952 -0.9472994423 0.1599717281 -1.1919438501 -0.7297157532 0.0360329270 0.2447271505 -0.4282862919 -0.5619863784 -0.7837693994 0.8117673591 -1.1398078071 0.4429526761 -0.9542132861 -0.1897762415 -0.0804018393 0.4126805508 -0.0320739682 0.1979450267 -1.2711516766 -0.9700912074 0.5394717749 0.8501261570 -0.0724312447 0.1541723948 -1.2427661517 0.9605661860 -0.2344085579 0.0444031672 0.0192899282 -0.5727657111 0.1311853873 0.2322597082 -0.3914184365 0.7802264235 -0.3205898952 0.1099077367 0.6312462535 0.7236831956
