-0.0820605453 -0.0065555515 0.0038596388 0.0588566630 -0.0331345654 -0.0192286995 0.0880066820 -0.0134154768 -0.0810219101 0.0211817741 -0.0421227101 0.0443623349 -0.0537601580 -0.0195105923 0.0154472261 0.0127789920 -0.0347073466 -0.1179000874 -0.0275553941 -0.0587490439 -0.0705235818 0.0943813994 0.0542776596 0.0075112067 0.0555664242 0.0004479533 0.0765549931 -0.0351865273 0.0261959776 -0.0057636480 0.0780373577 0.1015425897 -0.0536568262 0.0326001771 0.1014092456 0.0300156356 -0.0024669776 -0.1258658862 0.0099113052 0.0228520364 0.0056881618 0.0325548839 -0.0408918427 0.0865833406 -0.0095087320 -0.0407071878 0.0041899310 0.1028790155 -0.0762589163 0.0634346756 -0.0078120276 -0.0260497431 -0.0848583178 -0.0058773260 0.0851717612 -0.0878747191 0.0370211080 -0.0615122240 0.0077557370 -0.1727194531 -0.0683923850 0.0268154889 -0.0161804458 -0.0599525852 -0.0782284737 0.0831263090 0.0309060652 0.0838594440 0.0440214630 -0.0916773303 0.0635219836 0.0300434097 -0.0498786356 -0.0296492231 0.0106784940 -0.0029281845 -0.0164517025 0.0701977528 -0.0762359644 -0.0167634865 0.0069924398 -0.0386097485 0.0429730712 -0.0231637480 0.0029390397 0.0481874811 -0.1053779824 0.0098224320 -0.0421000032 -0.0817638445 -0.0437041810 -0.0687434508 -0.0755018933 0.0223026433 0.0249278740 -0.0371998734 -0.0019759848 -0.1117819920 -0.0181647067 0.0469054323 -0.0216604226 0.1046222094 -0.0306135780 0.0303780633 -0.0352241640 0.0081909435 -0.0079227849 -0.0356026299 -0.0060304531 0.0156568898 -0.0218413074 0.0054357921 0.0514679063 -0.0226167450 -0.0072312073 -0.0352881170 0.0758200351 0.0268485767 -0.0229862373 0.0724433495 -0.0270002632 -0.0256727760 0.0258235942 -0.0249816538 -0.0611298250 0.0392249219 0.0022884122 0.1444717755 0.0573937278 -0.0624726820 0.0135371515 -0.0288139004 0.0092687568 -0.0013471057 0.0720491992 0.0257781599 0.0804576346 -0.0622714988 0.0371943032 -0.1091075836 0.0182668243 0.0453742432 0.0757361921 0.0069395247 0.0660730481 -0.0591659673 -0.0130380984 0.0045958718 0.0029468399 0.0851006758 0.0419119415 0.0950504677 0.0004493941 0.0607782525 0.0859498656 -0.0013330317 0.0211475843 0.0962562283 -0.0198749987 -0.0335747260 -0.0460454199 -0.0606799781 -0.0124957510 0.0204590465 -0.0202004848 0.0090256095 -0.0053464788 -0.0187109227 -0.0147973864 -0.0041009072 0.0624743087 -0.0021899969 -0.0029826459 -0.0509115005 0.0223628315 -0.0405643157 0.1398615687 0.0331503977 0.1436116159 0.0257516040 0.0844752581 0.0849082252 -0.0226042868 0.0092441924 -0.0295367737 -0.0061166167 -0.0083231736 -0.1195485478 -0.0331851957 0.0232968013 -0.0533313280 0.0532258043 -0.0023876962 0.1197452433 -0.0094094101 0.0305239450 -0.0020580379 -0.0819859851 0.0616206377 0.0796869645 0.0074831196 0.0050293734 0.0047706920 0.0293815763 0.0585230594 0.0668357854 0.0421096965 -0.0023554907 -0.0819003399 -0.0346624234 -0.0373138615 0.0076204417 -0.0242468115 0.0358658176 -0.0655731769 0.0377174891 0.0311691430 -0.0080079824 -0.0077018096 -0.0099940032 -0.0208348233 0.0239612557 0.0227336278 -0.0371768483 0.0301731341 -0.1067112907 0.0353936963 0.0217662114 -0.0796655862 0.0070352226 -0.0363806769 0.0652833382 0.0444093800 0.0727245206 0.1566067073 0.0684248118 -0.0287714822 -0.1373348185 -0.0610525977 0.0389407626 0.0467452702 0.0006824583 0.0087903629 0.0384191670 0.0006672470 -0.1520278625 0.0380320224 -0.0511948393 -0.0777107584 0.0343205633 0.0821725231 -0.0323468467 0.0573216304 0.0385687498 -0.0156920863 0.0081652788 -0.0208430967 -0.0242686322 -0.0473722470 0.0222452172 0.0432267770 0.0351863720 0.0672002403 0.0151246805 -0.1063880128 -0.0281867151 -0.0324346835 -0.0266416692 0.0818487261 0.0718575664 0.0186634143 0.0689694103 0.0687721061 0.0630708558 0.0504407223 -0.0409869882 -0.0053293426 -0.0143699315 0.0036654343 -0.0617653394 -0.0233659543 -0.0505888897 -0.0859351941 0.0639019118 0.0854575701 0.0905603553 0.0884714340 -0.0969424879 0.0423919692 -0.0516956426 0.0165373804 0.0461833892 -0.0526003044 -0.0099334400 -0.0612549414 0.0237018810 -0.0185766188 0.0986811852 0.0238369164 -0.0022761084 0.0249631805 -0.0398047574 0.0455686983 0.0298205789 0.0792428220 -0.0502628584 -0.0540887253 -0.0377010575 0.0526999820 0.0184664952 -0.0115509419 0.0987151057 -0.0085618271 0.0616019745 0.0848343830 0.1172149536 0.0099059932 -0.0718471056 -0.0286451417 -0.0722255085 -0.0514192190 -0.0738549084 -0.0135867661 0.0736394255 0.0489829212 0.0697672609 0.0132196552 -0.0058502331 -0.0129736135 0.0309488753 0.0787507449 0.0080041287 -0.0231736851 0.0435071480 -0.0281950408 -0.0034035513 0.0615053426 0.0129585453 -0.0036895358 0.0051297839 -0.0410101196 0.0302306770 0.1035020009 -0.0419495148 -0.0804093943 -0.0233527332 0.0066582901 -0.1059057716 -0.1047373660 -0.0118931009 -0.0236426862 0.0881820711 -0.0319501246 0.0257875802 0.0593928841 -0.0047907389 -0.0069686355 -0.0773115884 -0.0686056493 0.0072590159 0.0284396772 -0.0764571350 -0.0118680347 -0.0776119653 0.0189650950 0.0408224443 0.0126144725 -0.0275771045 -0.0273485372 0.0556934506 -0.0091813566 0.0484339476 0.0366374785 0.0166797206 0.0079377371 0.0018880125 -0.0252695883 0.0030053384 -0.0752997139 0.0097220599 -0.0736955572 -0.1109564349 -0.0177641271 -0.0044344235 0.0602567599 -0.0587631382 0.0512344737 0.0211106506 -0.0057708190 -0.0440133694 0.0304929602 0.0199567262 -0.0320982324 0.0708674283 0.0503566018 -0.0007977221 -0.0296660849 0.1021558637 0.0151437010 -0.0038212544 -0.0390224471 -0.0348506084 -0.1253333274 0.0322846977 -0.0514143041 -0.0629915178 0.0329424987 -0.0720826871 -0.0241307084 0.0135562202 -0.0306867864 0.0997917805 0.1471080956 -0.0119388778 0.0530819059 0.1095124249 0.0808169218 -0.0371922728 0.0003546223 0.0902491643 -0.0648086013 -0.0238668078 -0.0306867429 0.0031994143 -0.0270800789 0.0262215373 -0.0260463438 0.0193876525 -0.0091974400 -0.0089148693 0.0307644957 0.0363243256 0.0987364567 -0.0112061502 -0.0471327428 0.0105887796 -0.0045020588 -0.0712990662 -0.1062244149 0.0123019303 -0.0045079285 0.0090341308 0.0158928591 0.0706442250 -0.0689328309 -0.0366181880 0.1049553761 0.0180669586 0.0616302603 -0.0155140051 -0.1007186416 0.0260940498 -0.0659387123 -0.0423198571 0.0587980126 0.0203813608 -0.0243356936 -0.0439047013 -0.0381048045 0.1121161019 -0.0323003511 -0.0118162817 0.0688615387 0.0226549308 0.0149651517 -0.0811394702 0.0049821003 0.1148812819 0.0837882251 0.1142958739 -0.0044681642 -0.0215955422 -0.0597044787 0.0142606188 0.0789749393 -0.1006057340 -0.0029953941 0.0146147420 -0.0427153928 0.0011237895 -0.0520606465 0.0072156077 -0.0318500104 -0.1369460686 -0.1006767288 -0.0984872740 0.0192570967 -0.0097081416 -0.0597221102 -0.0279010388 -0.1481122665 -0.0838633539 -0.0405412626 -0.0150418546 -0.0958777358 0.0707186993 0.0644367422 0.0167057054 0.0825743948 -0.0084867784 0.0713600329 0.0342791459 -0.0076551729 -0.0162607170 0.0372908167 0.0353804381 -0.0331701763 -0.0238047785 -0.0587667710 -0.0142598367 0.1184493730 -0.0035552997 -0.0200905536 -0.0113210155 0.0442271611 0.0344392975 0.0558787917 -0.0366570503 -0.0298893013 0.0410693510 -0.0117928544 -0.1267254096 -0.0616855995 -0.0552231727 0.0614463197 0.0372477457 0.0969158533 0.0537479884 0.0758975370 0.0254641878 -0.0742469954 0.0127165011 -0.0025098693 0.0571209969 0.0888104393 -0.0066953032 0.0392648888 0.0076232212 0.0943575718 -0.0681144365 0.0891588677 -0.0075739225 0.0165368636 0.0415992170 0.0193465228 0.0032743508 -0.0296935154 -0.0148464460 -0.0575201997 -0.0620068347 -0.0104648834 0.0303307526 0.0299580093 0.0364785097 0.0355094974 0.0128941877 -0.0082169948 -0.0040782059 0.0053163257 -0.0097225529 -0.0241536461 0.1279115919 -0.0465944163 0.0645010407 0.0196388237 -0.0189310125 -0.0368754676 -0.0140199668 0.0458222436 0.0647244967 -0.0117088874 -0.0050799011 -0.1064081837 0.0839665237 -0.0075363441 -0.0143975548 -0.0201406787 0.0625512060 -0.0379318833 -0.0587599673 -0.0253680907 -0.0263919148 0.1083000818 -0.0382040029 0.0494202134 -0.0258315416 -0.0416579239 0.0681921297 -0.0129642021 0.0244619031 -0.0408242675 0.0544682805 -0.0626703898 0.0668582883 0.0198030657 0.0410826516 -0.0035230678 0.0144384032 0.0246555402 0.0266416942 0.0481969944 -0.0010167404 -0.0357197499 -0.0280859194 0.0629424362 -0.0125306092 0.0361917778 -0.0123790481 0.0489902363 0.0705285154 0.0058154603 0.0666347063 0.0823603322 0.0955352564 0.0645058851 0.0080307131 -0.0388746668 0.0321422958 -0.0631957387 0.0384008566 0.0140835050 -0.0294829296 0.0150600700 0.0076500809 -0.0043741631 -0.0836886116 -0.0139970947 0.0115235807 -0.0054992755 0.0623240260 0.0009253541 -0.0431441793 -0.0266291357 -0.0342659101 -0.0319746712 -0.0520492983 0.0967602268 0.0612627715 0.0402219948 -0.0701322146 0.0342131060 -0.0042546038 0.0315462178 0.0185640963 0.0129433136 -0.0349698146 0.0066627573 0.0016629208 0.0217079640 0.0261790978 0.0358130779 -0.0310809318 0.0058133681 0.0498186799 -0.1033189390 0.0319699103 -0.0867831411 0.0145032380 -0.0134963420 -0.1197762207 -0.1025493929 -0.0676300397 -0.0600323190 0.0416773529 0.0410192143 0.0066998389 0.0745481142 0.0229829248 0.0656587865 0.0142188318 0.0386151721 -0.0096785255 -0.0909318105 -0.0099688404 -0.0135093105 -0.1072679230 -0.0175049135 0.0083224589 0.0387497424 0.0048894689 0.0027040209 0.0134844173 -0.0187753379 0.0451052635 0.0138690077 0.0044600288 0.0483537474 0.0671993239 -0.0528698173 -0.0663229900 -0.0359210859 -0.1142326623 0.1136957713 -0.0065050266 0.0122267261 0.0384726377 -0.0145906782 0.0526092159 -0.0172020144 -0.0136195787 -0.0025870912 -0.0230853876 0.1281023497 0.0440942438 0.0613593457 -0.0390382723 -0.0077807832 -0.0037062255 0.0539439606 -0.0377408849 0.0237993565 -0.0483065567 0.0753194428 -0.0035836401 0.0181047444 -0.1044454394 0.0066020675 -0.0280970510 -0.0615021424 -0.0916192650 -0.0173831617 0.0064669428 0.0106961930 0.0421686606 -0.0125528806 0.0036850202 -0.0041971849 0.0802132576 -0.0016305157 -0.0354942178 -0.0092409810 0.0295759513 -0.1127301819 0.0166663171 0.0565815270 0.0879288631 0.0083928260 -0.0679587790 -0.0027824165 0.0723633934 -0.0041113945 -0.0027743858 0.1370236141 -0.0957659407 -0.0862001603 0.0000057690 -0.0086115542 0.0614451678 0.0061815910 0.0608244708 -0.0519659703 -0.0496743682 0.0282999499 -0.0237827528 -0.0032833338 0.0335635405 -0.0882010259 -0.0735651852 0.0587051715 -0.0417518863 -0.0685351702 0.0592797694 -0.0008725692 -0.0330498824 -0.0600304321 -0.0490699300 -0.0381909337 -0.0897697595 -0.0021511148 -0.0262357134 0.0774311458 -0.0163110699 -0.0133222299 -0.0429731339 0.0769386943 0.0072822484 -0.0441622610 0.0439758829 0.0875065783 -0.0174661397 -0.0152763992 0.0279135200 -0.0211816252 -0.0318076416 -0.0571785029
-0.0367845865 -0.0495626870 -0.0226282743 0.0268653131 -0.0186213949 -0.0110657678 -0.0141637012 -0.0568846214 -0.0146794513 -0.0235121462 0.0022250940 0.0477011498 -0.0687810067 0.0735727674 0.0178412927 0.0147544072 -0.0251591609 -0.0083771873 -0.0253842753 -0.0059345771 -0.0017843809 -0.0189886085 -0.0183088959 -0.0353924681 -0.0373150518 -0.0182806800 -0.0453801053 -0.0282972913 -0.0148389962 -0.0379901422 -0.0168144301 -0.0226403723 0.0561166003 0.0391464599 -0.0064209233 -0.0354067669 -0.0199172324 0.0008592871 0.0120763879 0.1027290261 -0.0119284224 0.0792250393 -0.0495694228 0.0920772240 -0.0587704091 0.0217856715 0.0358077264 0.0559617909 0.0508944751 -0.0202357229 0.0611485507 0.0050259186 -0.1295701120 -0.0012233054 -0.0546814612 -0.0595398118 -0.0546390409 0.0066773870 -0.0423038837 -0.0439892289 -0.1191897084 0.0759723448 -0.0691651224 -0.0360932950 -0.0087720424 -0.0644517029 -0.0352612029 0.0169471198 0.0580330421 0.0573330911 -0.0459313990 -0.0204612566 -0.0214720272 -0.0814956765 -0.0358583732 -0.0337897930 0.0451998202 -0.0189489397 -0.0084585151 0.0334946737 0.0034223340 0.0698362170 -0.0183200318 0.0001377191 0.0119896143 0.0169673832 -0.0986575495 -0.0124527952 0.0822200948 -0.0049869421 -0.0020610494 0.0830810066 0.0301580756 -0.0288532210 0.0151944230 -0.0989549996 -0.0629933304 -0.0170202600 -0.0956765279 -0.0900346995 -0.0575057193 -0.1270198722 -0.0233258172 -0.0197270388 0.0499213622 0.0172186146 0.0284037948 -0.0358658790 0.0038910553 0.0410212832 -0.0533758296 0.0232566066 -0.0178651720 -0.0084494917 0.0042084312 0.0675009797 -0.0105592540 -0.0628834838 0.0098178607 0.0414359582 -0.0668194386 -0.0582814286 -0.0551795997 0.1341142086 -0.0964616622 -0.0184381416 -0.0743704517 -0.1284291927 -0.1646502256 -0.0052379749 0.1212340842 -0.0551478408 0.0439672560 -0.0822851449 -0.0651095566 -0.0438161886 0.0350706778 0.0623640336 -0.0123205507 -0.0043693904 0.0942754735 -0.0456547531 0.0505360340 -0.0093937319 -0.0268650680 0.0294922943 -0.0307206983 0.0378600355 0.0529906318 -0.0515749587 0.0208680510 -0.0345528468 -0.1769413075 -0.0719304121 -0.0995002652 -0.0537550509 -0.0123229066 -0.1169748432 0.0142143960 0.0489696193 0.0034184708 -0.1016203617 0.0368489711 0.0954370460 0.0749578993 0.0563663377 0.0156247096 -0.0289983448 0.0028726713 0.0909851730 -0.0121429530 -0.0155739979 0.0128981336 0.0670951809 0.1121484094 -0.0479013627 0.0205143582 -0.0059007723 -0.0311516627 -0.0481247626 -0.0784442149 -0.1556904674 -0.0702100178 -0.1317896778 -0.1162195082 -0.0235146711 0.0695280305 0.0559435826 0.0286177213 -0.0395238971 -0.0463695791 0.0554345158 0.0401282099 -0.0088182678 -0.1136758199 -0.0118987039 -0.0476216665 0.0190748533 0.0106584955 0.0644692265 -0.0477874150 -0.0998436322 -0.0160375825 0.0195830470 0.0249769174 -0.0941312556 -0.1237608137 -0.0341920622 0.0332003812 -0.0234183032 -0.1292726092 -0.0641432621 -0.0657300523 -0.0816596769 0.0781563426 0.0179709603 0.1303267764 0.0017250197 0.0494137181 0.0533823119 0.0096580355 -0.0505171682 -0.0279603643 -0.0931771059 0.0151176475 0.0371694369 -0.0328636291 0.0222030813 0.0279296095 -0.0267861157 -0.0175947768 -0.0137362379 0.0327740037 -0.0193295516 0.0639890927 -0.0303318065 -0.0593593983 0.0438478936 0.0453137948 -0.0162602936 -0.0402293692 -0.0745466538 0.0089391295 -0.0802863500 -0.0671713532 0.0345982354 0.0848687153 -0.0353813468 -0.1508770962 -0.0410196845 -0.0105029407 -0.0250688234 0.0027031759 -0.0935849945 -0.0485735408 0.0517095535 0.0463997468 -0.0584271503 0.0009427291 -0.1039621830 -0.0093935615 0.0997498140 -0.0824395568 0.0242100096 0.0778238957 0.0158393742 0.1119328749 0.0034440780 -0.0349025565 -0.0092023709 -0.0052511450 -0.0109775558 -0.1249834798 -0.0166936286 -0.1769396959 -0.0290536509 -0.0130564342 -0.0970124797 0.0435015143 -0.0438440240 -0.0723116211 0.0105317966 0.0391250218 -0.0009550794 0.1038997216 -0.0025149363 -0.0532653547 -0.1186704595 -0.1094498577 -0.0504916905 0.0842706813 0.0082363914 -0.0475512136 0.0436686948 0.0258549307 0.0146172780 0.0829171685 0.0426324579 0.0505388690 0.0337764352 -0.0312517952 -0.1550708229 -0.1301290542 -0.0532433667 -0.0620094113 -0.0718107916 -0.0697117040 0.0052455248 0.0315441273 -0.0284488906 0.0277839825 -0.1481477580 -0.0809533230 -0.0541357611 -0.0311725140 -0.0124739561 0.0686214823 -0.0152243010 0.0610360638 0.1127828957 0.0614526675 0.2090445887 0.0135849176 0.0576293213 0.0004536476 0.0685443313 0.0137552149 -0.0127437007 -0.1316383339 -0.0959236778 -0.0545241119 -0.0598806423 -0.1442933516 -0.0852956057 -0.0212456063 -0.0382049977 0.0685365711 -0.1405726035 -0.1006092133 -0.0318380818 0.0333297117 -0.0973975409 -0.1789432465 -0.0263709488 -0.0756482580 0.0383615471 0.0713512394 0.0226886484 0.1088573819 0.0832403700 0.1415050841 0.0443530652 0.0893854325 0.1797774539 0.1499610968 0.0404314295 -0.1118149672 -0.0403812853 -0.0163343462 -0.0305804765 0.0320918817 -0.0943968411 -0.0070288673 -0.1035923102 -0.0347905024 0.0106363558 -0.0746530818 -0.0481989129 -0.0585275013 -0.0797121793 0.0622367430 -0.0459313411 0.0407933111 -0.0584149592 -0.0366848902 0.1384848621 0.1180422184 0.1124464334 0.1019340586 0.0693116102 0.1681266408 0.2447392954 0.1810734461 0.0129293102 -0.0114923582 0.0121619041 0.1245639247 0.0853295276 -0.0696117127 -0.0167596121 0.0961461722 -0.0751159928 -0.0126127933 0.0276950035 0.0324575879 0.0066410666 0.0484530794 0.0403213713 0.0603054284 -0.0634422859 -0.0462724067 0.1030391947 0.0567966982 -0.0726717429 0.0188238075 0.0864186432 0.1482442654 0.1227095782 0.0312587611 0.1695554559 0.1270990977 0.0100469950 0.0014629812 -0.0034783267 -0.0189383055 0.0079628665 -0.0196282823 -0.0025065158 0.0272089473 -0.0570350010 -0.0803095708 0.0901173256 0.0848884296 -0.0075100351 0.0064833727 -0.0069513506 -0.1327051080 -0.1195425917 -0.0368791111 -0.1144581810 -0.0619314302 -0.0240329308 0.0252802227 0.2288603751 0.0914402674 0.1426705552 0.0421889160 0.0294324577 0.1022888867 0.0368171846 -0.0275800814 0.0480064109 0.0477967637 0.0009528439 -0.0337723521 0.0429351036 0.0221632041 -0.0396059913 -0.0493657316 -0.0310113739 -0.0079331853 -0.0401353226 0.0457807850 -0.0348363839 -0.0751146770 -0.0820890401 -0.0244809691 -0.1790425396 -0.1748106049 -0.1472828683 0.1211461691 0.0971708571 0.0917380849 0.0452673304 0.0601562188 0.1391894341 -0.0516860516 -0.0696679299 -0.1862327098 -0.0743308848 -0.1666998296 -0.1633752331 -0.0785794842 0.0397304979 0.0162968293 0.0904005169 0.0516369308 0.0304862468 0.1276167597 -0.0266406491 -0.0006770275 -0.0544946968 -0.1316011641 -0.1627819114 -0.1016812236 -0.0744146564 -0.0365915907 0.0221517723 0.0960976955 0.0703730272 0.0370430462 -0.1081582902 -0.0448358035 -0.0044950415 -0.0918646753 -0.1628972499 -0.1502034643 -0.0679764816 -0.2098253490 -0.1167213624 -0.0511550597 -0.0420373728 -0.0545896449 0.0125047725 0.0485067755 0.0202709986 0.0161817674 0.0318382397 -0.0011051685 0.0147758246 -0.0805509850 -0.1465929912 -0.1650736865 -0.0933720826 0.0020364176 0.0159828712 0.0229934038 0.0056462998 0.0352639814 0.0381335441 -0.1127218897 -0.1591192184 -0.0233115376 -0.1024613559 -0.1846113342 -0.0801866926 -0.0495427989 -0.1472943574 -0.0100948061 0.0029653866 -0.0822439428 0.0030292337 -0.0526571935 0.0019843795 0.0190672539 -0.0730679740 -0.0823365796 -0.0997253757 -0.0834792213 -0.1815078795 -0.1261876829 -0.0948258449 -0.0247726779 -0.1224072842 0.0796265416 0.1007331980 0.0206474057 -0.0137132634 -0.0104549483 -0.1803855978 -0.0888968311 -0.1027425963 -0.2106734839 -0.0828062712 -0.0939515212 -0.1313216304 -0.1086746920 -0.0503566558 -0.0048409406 0.0015568970 0.0297581571 0.0026482288 0.0346707858 -0.0464435456 -0.0104853834 -0.1109180001 -0.0831592095 -0.0996632314 -0.2187585210 -0.0560412055 -0.0741997831 -0.0380742931 -0.0313114426 0.1061417314 -0.0302789178 -0.0680025123 -0.0524124051 -0.0999170408 -0.0819268373 -0.0787250571 -0.0686049147 -0.0901475666 -0.0872136523 -0.1454587827 -0.0320457804 -0.0545231213 -0.1192837389 0.0215798700 -0.0542016482 -0.0587725519 0.0118100725 -0.0292415568 -0.0267147623 0.0112848311 0.0028980016 -0.0245929293 -0.0946321332 -0.0605504050 0.0418563732 -0.0265994308 -0.0796887307 -0.0187448535 -0.0504174853 -0.0233698640 0.0663003769 -0.0009219415 -0.0059938145 0.1159930402 -0.0182133603 -0.1445817883 0.1072883603 -0.0398588945 -0.0992814244 -0.0107704339 -0.0539955903 0.0084070695 -0.0480746798 -0.0529191831 -0.0648155474 0.0106383613 -0.0088152744 0.0544777552 0.0284035150 -0.0227178355 -0.1538097714 -0.0873254056 -0.1575431490 0.0297591723 -0.1109590417 -0.0956125310 0.0650948320 0.0882926690 0.0600459758 -0.0454137941 0.0425253924 0.1368775121 0.0373799877 -0.0245700210 0.0944342341 -0.0714499529 0.0532931643 -0.0716646216 0.0739883202 -0.0308793007 -0.0820471415 -0.0624781966 -0.0191324210 0.0124855281 -0.0699297058 0.0000498455 -0.0099231858 0.0011123670 -0.0156099172 -0.0860595024 0.0148695618 -0.0046227957 0.0895680062 0.1026758739 0.0560518365 -0.0409767530 0.0490795465 0.0503140792 0.2273208162 0.1008933590 0.0927508945 -0.0482032742 0.0285274343 0.0385384487 0.0081212287 -0.0259125432 -0.0053914013 -0.0547478299 0.0518235543 0.0540840227 -0.0867710930 0.0279833263 0.0068664152 -0.0347899896 -0.0503704646 -0.1156525012 -0.0106444599 -0.0864111169 -0.0791472420 -0.0518843398 -0.0329231209 -0.1209892846 -0.0576666452 -0.0648421839 -0.0463101375 -0.0030050198 0.0096840138 -0.0109625134 0.1687801442 -0.0258922546 0.0622432876 0.0784282323 0.0063086795 -0.0059708089 -0.0070285481 0.0481952044 -0.0445475215 0.0309477128 -0.0215445084 -0.0027290429 0.0250008870 0.0680397132 -0.0665292245 -0.0107740714 -0.0164042475 -0.0790768898 -0.1437255981 -0.0172142763 -0.0688957437 -0.0562799465 -0.0459739773 -0.0556089963 -0.0773963093 -0.1726650727 -0.0917076136 0.0056426856 -0.0127917842 0.0500485723 0.0035650259 -0.0245474174 0.0595887834 0.0833777988 0.0997687305 0.0592787470 0.0495874940 0.0900112440 -0.0133635826 -0.0319924487 -0.0372348330 0.0860305887 0.0470844535 -0.1084934370 -0.0377787645 -0.0176458252 -0.1093997401 -0.0572478691 -0.1235832423 -0.0556866694 -0.0821571819 -0.0595024915 -0.0538245091 -0.0286468308 -0.0553772202 -0.0364702746 -0.0348008804 0.0349331179 -0.0104860457 0.0047591819 0.0395138777 0.0174904954 0.0028700594 -0.0130747215 0.0724248215 -0.0292713267 0.0256474555 0.0241267271 -0.0000710161 -0.0036197407 -0.0798015575 -0.0225247759 -0.0453271028 0.0433687716 -0.0426379917 -0.0657530596 -0.0468117621 -0.0364893996 0.0405874387 0.0030469391 0.0387212581 -0.0576180083 0.0198229055 0.0537251683 -0.0011438036 0.0011573429 0.0346429261 -0.0296140364 0.0116167161 -0.0808490306 -0.0147546229 -0.0332345711 0.0570355369
0.1111217189 -0.0128100494 -0.0198336051 0.0275115984 -0.0063036544 -0.0378701219 0.0300220528 0.0042704350 0.0273487690 -0.0092944245 0.0393089397 -0.0204861880 0.0198300278 -0.0364669419 0.0209788358 -0.0567281189 -0.0331075538 0.0367544041 -0.0209250256 -0.0005458912 -0.0109238030 0.0250249976 0.0391428935 0.0312960758 0.0471639916 0.0396409703 -0.0236394532 -0.0030353160 -0.0560455943 0.0843909307 -0.0532290859 0.0868262392 -0.0139367758 -0.0103075297 -0.0755749384 0.0007074626 0.0196353488 0.0281719901 0.0203848507 -0.0708816908 -0.0285280934 -0.0823616684 0.0046742744 -0.0686090897 -0.0363964548 0.0345930002 0.0324499999 0.0074324146 0.0169555828 0.0826858846 0.0444301938 0.0499751074 0.1344380216 0.0341200193 0.0563816952 -0.0108210496 -0.0658594602 0.0763923172 0.0257087095 -0.0782967445 -0.0333775042 -0.0166297688 0.0046209667 -0.0596871018 0.1497242499 -0.0867098385 0.0153288912 -0.0002830439 0.0401422793 -0.0822327399 0.0152889964 0.0085742700 -0.0418523787 -0.0287452380 -0.0524878783 0.0429722930 -0.0136249208 0.0343451109 -0.0879537632 0.0604338397 0.1185899099 -0.0422014451 0.0302146476 0.0140286751 0.0060918688 -0.1781077616 0.0894670469 -0.0213604192 -0.0557979159 0.0371783502 -0.0087425383 -0.0008087677 -0.0534590680 -0.0599449043 0.0315902203 0.0155836454 0.0413288858 -0.1210262046 -0.1147526043 -0.0791214676 -0.0502914555 -0.0903630065 -0.0225723583 0.0255437566 -0.0450146541 -0.0148953682 0.0657604856 -0.0126689310 -0.0367598780 -0.0220385162 0.1536502509 0.0584376449 -0.0779091950 -0.0211806377 0.0336136480 -0.0566767403 0.0267172468 -0.0527252046 0.0558869817 -0.0013305329 0.0427745217 -0.0271636217 0.0118894511 0.0805285650 -0.0109974420 0.0033462178 -0.1649355373 -0.0469168112 -0.2489424017 -0.1059922012 -0.0677121683 -0.0466665133 -0.0917522577 -0.0960138644 -0.0922351956 -0.0394234795 -0.0292387760 0.0303350441 -0.0278458852 -0.0587605216 0.1036274155 -0.0528469981 -0.0142738682 -0.0127122927 0.0631406531 0.0228375571 -0.0631624891 -0.0336011546 0.0069290865 0.0134287104 0.0561841956 0.0040955803 0.0296320374 0.0711367764 -0.0805180185 -0.0940229232 -0.1397275391 -0.0230775086 -0.0489742464 -0.0821271466 -0.0704225483 -0.1210650565 0.0196809581 0.0040069295 -0.0617813814 0.0550600370 -0.0072934980 -0.0241344330 0.0298243952 -0.0156792561 -0.0396673583 0.0266774692 0.0216224181 0.0580005745 0.0210174341 0.0398352392 0.1273927568 0.1607240647 0.1156657970 0.0506560035 0.0793089348 0.0499141983 0.0602327099 0.0041892840 -0.0051790559 0.0558696155 -0.0140504161 0.0392117013 0.0969526213 0.0212801977 0.0847417047 0.0637967574 0.0149974720 0.0192635753 0.0278454320 0.0001838640 0.0622160284 0.0836338573 0.0138960477 0.0275868480 -0.0730226342 0.0455185923 0.0204335031 0.1106414070 0.0440812925 0.1208252474 0.0312595994 0.1381710805 0.1040449909 0.0787824228 0.1332179546 0.0992119644 0.0819669714 0.0006655070 0.0574299235 0.1904364635 0.0981599714 0.1302812218 0.2019792160 0.0992400561 -0.0746261521 -0.0455642809 0.0441005340 -0.0686024476 -0.0103657091 0.1158995847 0.0164279982 0.0188570558 0.0872868264 -0.0060778123 -0.0542380948 0.0547864082 0.0299508989 0.0501164495 0.0888579360 0.1275336514 0.1748499039 0.0440400409 0.1530004877 0.2373543135 0.1668426994 0.1152834539 0.0614443950 0.0112216536 0.1111940102 0.1887675972 0.1367846030 0.0560359456 -0.0355419902 -0.0189393934 0.0044389492 0.0272847637 0.0462825896 -0.0377234100 -0.0672188244 0.0047685025 -0.0473980900 0.0627431514 0.1032623350 0.0487580015 0.0460008925 -0.0317836673 0.0335004988 0.1970157284 0.0432869239 0.1048244675 0.1475242428 0.1457384378 0.2222530048 0.0546726605 0.0666019265 0.0325911269 -0.1209032256 0.0011448148 0.1192465831 -0.0139323262 -0.1377269769 0.0171080519 -0.1248289412 -0.0214900605 0.0273447035 -0.0526400702 0.0193678193 0.0221977659 0.0668120316 -0.0250166858 0.0163279563 -0.0108035339 0.1108069008 0.0769088981 0.0561946696 0.0609701038 -0.0401703699 0.0053913180 -0.0201632448 -0.0344336582 -0.0156448517 0.0031204013 -0.0243783937 -0.1013635929 -0.0188041748 -0.0436312126 -0.0385684937 -0.0584994707 -0.0435274135 -0.1052372094 -0.0073599373 -0.1045400096 0.0152065985 0.0705483414 -0.0133122787 0.0500086946 0.0403498927 0.0082538408 0.0501906430 0.0673757176 -0.1035082485 -0.0707155495 0.0324318912 -0.1553488385 -0.0963995890 -0.0881591839 -0.2197004181 -0.2097427504 -0.1596983326 -0.1177087750 -0.1891072310 -0.0864866849 -0.1460725773 -0.0490890334 -0.1244756637 -0.0377166737 -0.1033512995 -0.0690222333 -0.0224918347 0.0319447728 -0.0577273706 -0.0035001064 -0.0225009992 -0.0510916903 -0.0642435962 -0.0467154097 -0.0844923934 -0.1710138966 -0.1784422879 -0.0499333217 -0.1918651403 -0.1518308425 -0.2868434837 -0.2742179932 -0.2386286875 -0.2115270727 -0.0471749636 -0.0756729290 -0.0960416044 -0.0207249087 -0.1223522159 -0.0996228324 -0.1006176547 -0.0833683952 -0.1651539584 0.0236324877 0.0976851903 0.0202059618 -0.0156627460 -0.0410541261 -0.0422580335 0.1171994614 -0.0413641735 -0.1053551516 -0.1475122787 -0.1757554492 -0.0459266404 -0.1181238651 -0.1613544258 -0.1225765597 -0.0363054354 -0.0365609537 0.0052236720 -0.0425608811 -0.1479226008 -0.1123496616 -0.0518906937 -0.0858176037 -0.1006191305 -0.0400345917 -0.0222686306 -0.0803447451 -0.1062184078 -0.1372722946 0.0439228892 -0.0067602765 0.0187857637 -0.0274865883 -0.0298011032 -0.0454843279 0.0117602545 -0.0685604625 -0.0801920753 0.0270528507 -0.0163957974 -0.0426749388 0.0418769072 0.0792770936 0.1372320403 0.0777302438 0.0580104278 0.0299334460 0.0443624713 0.0485772492 -0.1469734465 -0.0369662943 0.0600391172 -0.0517148693 -0.0626221145 0.0327719086 0.0444168460 -0.0106164565 0.0303658847 -0.0138237425 -0.0335042839 0.0908370524 0.0885130718 0.0201060464 0.0809038415 -0.0909626920 -0.0417560167 0.0371545668 0.1039639184 0.0452234719 -0.0565900255 0.0035843284 -0.0178982114 -0.0299963909 0.1042911638 0.0102768671 0.0485336660 0.0989694130 0.1084739585 0.0719791752 0.0431275605 -0.0250723616 0.0610570417 0.0520108307 0.0714123143 -0.0027404626 0.0332351264 -0.0134446059 0.0729786993 -0.0502433002 -0.0999368930 -0.0573598723 0.0306936347 0.0140052809 -0.0652358389 0.0214232725 -0.0625682051 0.0688575171 0.0184981294 -0.0259207553 -0.1114069131 -0.0827306149 -0.0066434437 -0.0768654369 0.0294876103 0.1049678589 0.1602526271 0.0560620052 0.1473310145 0.0802748302 0.0823723434 0.0573806869 0.0021405313 0.0669661774 0.0898425884 0.0827733336 0.0453475608 -0.0066197487 -0.0778104537 -0.0401123471 0.0137294668 0.0345554790 0.0611983755 0.0784433019 0.0221819992 -0.0299312534 0.0045144593 -0.0315366709 -0.1119626449 -0.0398242327 -0.0527339154 -0.0078716808 0.1271431546 0.1510775176 0.1866776036 0.1192119222 0.0822945254 0.1435293126 0.0968434081 0.0654859328 0.0578307316 0.0520394501 0.0147781481 -0.0638914272 0.0135029337 -0.0041253688 -0.0222637199 -0.0186908177 -0.0338580787 0.0163985682 0.0879663105 0.1335703062 0.1171614031 0.0912020371 -0.0338762871 -0.0445057598 -0.0473354489 0.0348876718 0.0581251697 0.0970839367 0.0914798987 0.1451125076 0.0630789976 0.0377033283 0.0189588929 0.0378196632 0.0179972121 -0.0427096744 -0.0095061500 0.0765498787 0.0846664429 0.0729590783 -0.0216116765 0.0483353975 0.0153876178 -0.0084094473 0.0473678982 -0.0117796398 -0.0308449574 -0.0392053192 -0.0011100871 0.0433003746 -0.0865470846 -0.0101493452 0.0949934736 -0.0005996081 0.0797572280 0.0786313819 0.0609861381 -0.0106077691 0.0546861857 -0.0034304479 -0.0611886908 -0.0603536822 0.0184550377 -0.0870168701 0.0458444178 0.1167246239 -0.0328475656 0.0262016022 0.0042257185 0.0270579937 0.0515544636 -0.0907644614 0.0551789685 -0.0697516459 0.1021142518 0.0130274284 -0.0526459373 -0.0283662372 -0.0417145457 0.0000064456 0.0093246379 -0.0148171479 -0.0468078679 0.0483414950 -0.0000741093 -0.0057771841 -0.2647369348 -0.0619877479 -0.0619687219 -0.0150071152 -0.0666000361 -0.0385848580 -0.0147488687 0.0972974013 -0.0160873656 0.0069487314 -0.0529794580 0.0588311112 0.0098464736 0.0694307956 -0.0499374039 -0.0221915898 -0.0425525929 -0.0055933204 -0.0903535494 -0.1066983473 -0.0579327929 0.0518488748 0.0168600129 0.0345480027 -0.0113611066 -0.0820201490 -0.1183726891 -0.0388040391 -0.0933669431 -0.0427092758 -0.0117698755 -0.1052552636 0.0376028634 -0.0192771589 0.0540048350 0.0768600345 0.2004700312 -0.0715910795 0.0065025328 0.0492261743 0.0017304735 -0.0410452083 -0.0221921124 -0.0873514948 0.0407230207 0.0102329399 -0.0519513941 -0.0752455243 0.0396589392 -0.0198317028 -0.0896920733 -0.0209977182 0.0057104217 0.0127111316 -0.0328458985 -0.1186363648 -0.1329602355 -0.1274408012 -0.0484898686 0.0021430428 -0.0129978714 0.0190268023 0.0708442711 0.0516109150 -0.0194506885 -0.0169461435 0.1009380412 -0.0097753989 -0.0533151892 -0.0743600638 -0.0033886774 0.0995178318 0.0321980704 -0.0703465906 0.0028011389 0.0509798024 -0.0303959212 0.0048272799 -0.0304316845 -0.0505971123 0.0414484314 0.0000629716 0.0376401835 -0.0554816441 -0.0187786407 -0.0755486809 -0.0168527491 -0.0421926190 0.0248819666 0.0694320191 0.0505239142 0.0688758237 0.0229584573 0.0723229148 0.0173027404 0.0028198306 -0.0006834622 0.0769079351 -0.0323459654 0.0339142342 0.0492296741 0.0181959823 -0.0017339725 -0.0099850968 0.0255271175 -0.0298674230 0.0730015220 0.0112447272 0.0287962704 -0.0055934699 0.0162341400 0.0276676007 0.0515103993 0.0767231568 -0.0151716728 0.0056876473 -0.0089298288 0.0298235949 -0.0626875683 0.0656299251 -0.0247843861 0.0109604830 -0.0060180462 0.0064999875 -0.0332333122 0.0194683694 0.0524582300 0.0921650749 -0.0089148623 -0.1311244210 -0.0079446077 -0.0026617647 -0.0147890659 -0.0120334609 0.1146174538 0.1293275248 -0.0257546566 0.0011175794 0.0476803593 0.0647923330 0.0842519000 -0.0103186717 -0.0202171222 0.0155266883 -0.0298488785 0.0200394951 0.0105989613 0.0339208899 -0.0401049925 0.0347481388 -0.0063532389 0.0114784665 0.0542443961 -0.0349204588 0.0499925277 -0.0242002316 0.0113730738 -0.0416578632 -0.0234869231 -0.0110219139 0.0077318065 -0.0372731186 0.0778683071 0.0717865626 0.0336445662 0.0163770804 0.0662238414 0.0401003582 0.1377032501 -0.0361632004 0.0837633635 0.0767000906 -0.0742345003 0.1272800765 -0.0115517259 -0.0225479114 -0.0746505617 0.0004497874 0.0044026696 -0.0239930824 -0.0477352828 0.0559061691 0.0003212278 0.0600307862 -0.0243445415 0.0697537796 -0.1258999638 -0.0008259099 0.0398408968 -0.0226241030 -0.0498537439 0.0242464136 -0.0082054125 -0.0329270092 0.0282625988 0.0261186601 0.0277860273 -0.0769996906 0.0206139067 -0.0221826261 0.1045682703 0.1056771091 -0.0168760185 0.0494103788 0.0488128057 0.0215468745 0.0053943150
0.2790573432 0.0104968479 -0.0387113838 -0.0791016163 0.0021924837 -0.0607652072 -0.0135086596 -0.0073730801 0.1367987128 -0.0145925638 -0.0422043186 -0.0123717031 -0.0511870018 0.0108205919 0.0298331014 -0.0730477349 0.0219054083 -0.0319774578 -0.0120157199 0.0050978096 0.0571955547 0.0010400346 -0.0108441053 0.0659027178 -0.0161175268 -0.0337837733 -0.0220026533 0.0274053727 -0.0696153041 -0.0256146726 -0.0393959884 0.0550603388 -0.0140084890 -0.0365829908 0.1117162439 0.0005270477 -0.0302019729 0.0279076151 0.0820261352 -0.1250419513 -0.0050812836 -0.0217868057 -0.0123129631 0.0035427353 0.0527080962 -0.0835306274 -0.0427110476 -0.1265433628 -0.0484796467 0.0252535740 0.0919630127 0.0053902790 -0.0471526632 -0.0005917745 -0.0032293348 0.0533282845 -0.0507021906 0.0765250301 -0.0145015226 0.0044593689 -0.0378283874 -0.0443447273 -0.0508470886 0.0630825495 -0.1567800519 0.0006130202 0.0084868834 0.0339984902 0.0606365571 -0.0018488848 0.0120298816 0.0131514972 0.0346105143 0.0453010464 0.0141974754 0.0103290699 -0.0551888804 0.0223538573 0.0090883391 0.0237811562 0.0669582967 -0.0038792783 0.1021246568 0.0546048813 0.0345188322 -0.0286722662 -0.1052175987 -0.0653434980 0.0294672011 0.0155206215 0.0467489897 0.0167140278 -0.0003185446 0.0333927932 -0.0125395909 0.0287307863 -0.0039930488 -0.0008736371 -0.1302631986 -0.0184908380 0.0070242862 -0.0108162192 0.0344325282 0.0061442789 -0.0436931539 0.0162958032 0.0509033735 0.0414197719 0.1072435444 0.0291774661 0.0054102916 0.0705711191 -0.0549191374 -0.0007660138 -0.0061992955 -0.0398020602 0.0035442872 0.0837886860 0.0685287918 0.0353230744 0.0623927211 0.0054783528 0.1138050655 0.1119861268 0.1040517277 0.0074879412 0.0445538986 0.0236084914 -0.1000307985 -0.0161850058 -0.1007954343 -0.0552958753 -0.0254144745 0.0343219068 -0.0338054064 0.0012614711 0.0062624083 -0.0445549792 -0.0375283672 -0.0812261841 0.0020078742 0.0893719444 -0.0065341942 -0.0169972959 0.0588411708 0.0561338750 -0.0039894192 0.0912094239 -0.0201481858 0.0221877917 0.1141731446 -0.0419268569 0.0486121812 -0.0057166669 -0.0740789122 0.1057522714 -0.0030124049 -0.0152032590 0.0473198236 0.1131136111 0.0659701836 0.0747858768 0.0274117268 0.0051021621 0.0669599033 0.0926856639 0.0103619410 0.0722692028 0.0177730616 0.0069132400 0.0477143129 0.0943217632 0.1182859869 0.0583536452 -0.1149202912 0.0359200800 -0.0735064748 -0.0201521434 -0.0731407239 -0.0654543909 -0.1105495771 0.0279404972 -0.0477858694 -0.0493837898 -0.0899665402 0.0014771653 0.0277273636 -0.0125565678 0.0131473613 0.0075485407 0.0394171764 -0.0689483982 0.0031226081 -0.0183978495 -0.0734389375 0.0718990554 -0.0517725322 -0.0060967906 0.0624796019 0.0609361563 -0.0598887050 -0.0335097724 0.0185296040 -0.0606633302 -0.1016988788 -0.1279554472 -0.0906638025 -0.0691211050 0.0029557907 -0.0416853583 -0.0563923488 -0.0337202776 -0.1106512241 -0.0226217375 0.0212105204 -0.0801769998 -0.0388743207 0.0062129949 -0.0593621215 -0.0249165232 -0.0553013522 -0.0119776156 0.0242286122 -0.0173957467 -0.0114713364 0.0085181983 0.0678122171 -0.0136763855 0.0390130975 -0.0410691307 -0.0218511456 -0.0998785442 -0.2348821228 -0.1949929640 -0.1352188188 -0.1350928419 -0.0383151017 0.0406283484 0.0136043070 -0.0374707245 -0.0467806287 -0.0748668746 -0.0733699263 -0.0384151277 -0.0347608026 0.0225906754 -0.0599862536 -0.0524737786 0.0001080787 -0.0314844056 -0.0177736409 0.0119129415 -0.1046661422 0.0310851924 -0.0216668226 -0.0605747704 -0.1070267028 -0.0291689697 -0.1482521898 -0.1653674138 -0.1629809225 -0.0506940929 -0.1153860565 0.0518750702 0.1003986503 0.0465488537 -0.0071143718 -0.2011614193 -0.1284855754 -0.0618292831 -0.0191345551 0.0817933342 0.0245505084 -0.0082212859 0.1038188571 -0.1110423767 -0.1303755567 -0.0524993792 -0.1226158226 -0.0037736607 -0.1040412524 0.0277521392 0.0119134268 0.0066999070 -0.0251193733 -0.0736659437 0.0019651558 -0.0778132184 -0.0591648502 -0.0775642412 -0.1236909865 -0.0686906501 -0.0135347632 0.0250571152 0.0060205293 -0.1882596324 -0.1742531456 -0.1502113830 -0.0422270788 -0.0587240945 -0.0317333479 -0.0705614409 -0.0955133523 -0.1439315840 -0.0558126006 -0.0885730669 -0.0583619052 0.0294419723 -0.0755596405 0.0174640543 0.0160169794 -0.0660719272 0.0440461841 -0.1510547402 -0.0243036789 -0.0339536993 -0.0733323906 -0.0537074995 -0.0639685141 0.0360901961 -0.0371994936 0.0483275774 -0.0838812449 -0.2818712991 -0.2076775385 -0.1427836105 -0.0513232272 -0.0461781160 -0.0619080262 -0.0811961340 -0.0690006899 -0.0772567694 -0.1988401069 -0.1708507073 0.0048251712 -0.0088190087 0.0976366431 0.0851442257 -0.0167323431 -0.0740701977 -0.1190039960 -0.1632742983 -0.1137406187 -0.0523158193 -0.0162802350 0.0089466688 0.0470226182 0.0791278209 0.0614829333 0.0554416700 0.0265336957 -0.1176016176 -0.1063259667 0.0184764055 0.0007707079 -0.1035667891 -0.0224340104 -0.0469887457 -0.1083766202 -0.0983713939 -0.0980528751 -0.0834255150 -0.0118799395 -0.0782113990 -0.0400754928 0.0152014989 -0.0055243339 -0.0333722767 -0.0362353932 -0.0220195208 -0.0432141353 -0.0428254247 0.0901574849 0.0665230093 -0.0091349110 0.0829583919 0.1734746968 0.0782637961 -0.0417626633 -0.0418595593 0.1085004414 0.0596626572 -0.0290591401 -0.0333222856 -0.1069471456 -0.0840525700 0.0688773695 0.0151790274 0.0025328249 0.0615479149 0.0349055915 -0.0265170539 0.0184710056 0.0542250377 0.0306102638 0.0321389577 -0.0213634583 0.0265858122 0.0070034944 0.0912326743 0.1455190576 0.0850884755 0.1731281161 0.0426895190 0.0967853727 -0.0114843063 0.0830211515 -0.0094556516 0.1390121637 0.1664172263 0.0885366276 0.0549301409 0.0390048359 -0.0144932079 0.0449281122 0.0025365567 0.1322195660 0.0215466903 0.0585210263 0.0542933700 -0.0367372011 0.0025000402 -0.0708412702 -0.0530312427 0.0054101066 0.1145304819 0.1020847375 0.0628987437 0.0158865426 0.0260767288 0.1504422156 0.0731582902 0.0357091157 0.0669805310 0.1038296442 -0.0320376438 0.1729560867 0.2246736423 0.1267119932 0.0327059962 0.1471779867 -0.0440833141 -0.0157715352 0.0571457897 0.0757422396 0.1552846962 0.0216311293 -0.0944447656 0.1039626606 0.0270184878 0.0128562976 0.0636195442 0.0328092356 -0.0230443264 0.0068197428 0.0754106255 0.1325125195 0.0439454721 0.1844677086 0.1100850773 0.0898438576 0.0934949480 -0.0492674770 0.0520420316 0.3076760087 0.1883989911 0.2901401148 0.0184028639 0.0469923015 0.0542548521 0.0942672356 0.0415892375 0.0701110855 0.0379195950 0.0878956489 0.0214713267 0.0069667990 -0.0087408931 -0.0152179245 0.0233632312 -0.0513897918 0.0146332683 0.0665073979 0.1691028652 0.1284827184 0.1251676155 0.0133885587 0.1214189811 0.0806702314 0.0830018413 0.0418136477 0.1391605199 0.1541234359 0.2551399700 0.0928677858 0.1783537052 0.0114365756 0.0992583542 0.1621060254 0.0274799262 0.0310060583 0.0396362432 0.0992143764 -0.0405129329 -0.0420266093 0.0815363665 0.0654709336 0.0195239751 0.0597967185 0.0312429821 -0.0104707782 0.1502087143 0.1682110632 0.1252123411 0.1646367666 0.0140172757 -0.0149697534 0.0332528766 -0.0308566967 0.0440737227 0.1515171211 0.1487408619 0.0328969499 0.0985052153 0.1442742677 0.1269984432 0.0536762141 -0.0100683676 0.0342338832 -0.0381594649 0.0529357158 0.0386808473 0.0225287671 -0.0028060289 0.0978505462 0.0499673424 0.1008118181 0.1618741306 0.0647861995 0.0045629326 0.1375546437 -0.0258630653 0.0246302723 0.0847830284 0.0540456358 -0.1532394757 -0.2089261709 -0.0274138116 0.1098516541 0.0625932314 0.0775003039 0.2270376992 0.1138360610 0.0788283816 0.0414518637 0.0905627907 0.0444012212 0.1639131510 -0.0084307408 0.0313957087 -0.0191178296 -0.0620483589 -0.0125609851 0.0147283577 -0.0064955375 -0.0031135921 0.0027934485 -0.0395817141 0.0489545613 -0.0618504533 0.0374101154 -0.1191010999 -0.0470740796 -0.2300700514 -0.1061148402 -0.1349933163 -0.0427678448 0.1149102942 0.0675928284 0.1352158816 0.1768296998 0.1073662631 0.0394287258 0.0354337155 0.1517696887 -0.0006256199 -0.0559956558 0.0954893860 0.0646177861 0.0135946688 -0.0313907395 -0.0216702831 -0.0138976117 0.0231177906 -0.0057868467 -0.0630915703 0.0905739342 0.1031244815 0.0068323901 -0.0686732311 -0.0619693963 -0.1580169116 -0.0842161087 -0.1339927147 -0.1542465637 -0.0381372182 0.0693061184 0.0813881588 0.0441751000 0.1777266209 0.0446459334 0.0550497458 0.0475361929 -0.0323215880 -0.0255895860 0.0739197967 -0.1001191909 -0.0457651091 -0.0502916196 0.0427230151 -0.0497879660 0.0054885355 0.0729645292 0.0020505879 -0.0352141249 -0.1257633288 -0.0781766857 -0.0381581834 -0.0690774718 -0.0834201275 -0.1641057549 -0.2178175860 -0.2474775702 -0.1584143499 -0.1013956760 -0.1656583452 0.0262907355 0.1121274305 0.1009479090 -0.0182256491 0.1055650648 0.0498920433 -0.0358280124 0.0781415696 -0.0203248909 -0.0111783498 -0.0339330769 0.0527788607 -0.0486249435 -0.0527371120 -0.0013690181 -0.0144303632 -0.0071681075 -0.1241864340 -0.1117996834 -0.0197840045 0.0063814858 -0.0919910761 -0.0260086185 -0.1058363721 -0.0780784740 -0.1812433065 -0.2115888277 -0.1034661377 -0.0331091305 0.1608469008 0.0507595024 -0.0811304668 -0.1002210493 0.0861521887 0.0831146928 0.0376543152 0.0103336033 -0.0613270442 -0.0003234696 0.0806747586 0.0017044050 -0.0829287340 -0.0181627911 -0.0697290660 0.0160706025 -0.0333614148 -0.0147017557 -0.0202685873 -0.0842667395 -0.1804973662 -0.1427120650 -0.0845899186 -0.1446398899 -0.1303975652 -0.1705923006 -0.1409203543 -0.1540949537 -0.0390529005 0.0002507563 -0.0421900955 0.0639352911 0.0270017898 0.0416031039 -0.1042531288 -0.0597593556 -0.0574848085 0.0517239210 -0.0583996019 0.1038945927 -0.0471542885 0.0267139476 -0.0254965099 -0.0502678906 -0.0174346782 -0.0661489754 -0.0926026035 0.0221226231 -0.0444960149 -0.0098664603 0.0069881037 -0.0091062660 -0.1227898608 -0.1468937555 -0.1132979359 -0.0464886146 -0.1368559127 -0.0286850820 -0.0365219445 0.0341845125 0.0464354989 -0.0957964965 0.0346320750 -0.0107203613 -0.0443196819 0.0716584902 -0.0205918113 0.0176047667 -0.0237919787 -0.0629718597 0.0623933394 0.0049023741 -0.0144615300 -0.0875849321 -0.1389399097 0.0167160619 -0.0021540811 -0.0405307409 -0.0757206759 -0.1000588496 -0.0727664118 -0.0475747828 -0.0507178689 -0.1267068053 -0.0647932140 0.0545792386 -0.0128310171 -0.0310275469 -0.0134251956 -0.0469609558 -0.0380060426 -0.0466333043 0.0146200675 0.0666824637 0.0849139087 -0.0131738509 0.0240208849 -0.0304257523 0.0287305961 0.0664129475 -0.0099224682 -0.0960825497 -0.0428549937 -0.0052975592 0.0278655445 0.0002529932 -0.1130549721 0.0330402960 -0.0035235132 -0.0933365884 -0.0589570352 0.0098166180 0.0070839303 -0.0433117319 0.0784337626 -0.0114662684 -0.0028044553 0.0187300424 0.0874866504 -0.0376880953
0.1893659103 0.0536094434 -0.0217309153 0.0492076010 0.1100806288 -0.0662388506 0.0102417466 -0.0873118869 0.0240921342 -0.0786125256 -0.0322515225 0.0763040346 -0.0343376697 0.0469041295 -0.0728805902 -0.0220614915 0.0429687951 -0.0138594355 -0.0706503509 -0.0092546256 0.0544099301 0.0810417888 0.0057284725 -0.0423652610 -0.0597228261 0.0074398784 -0.0323222596 -0.0175322832 -0.0574700572 0.0269544005 0.0000232231 -0.0107128749 0.0502000914 -0.0014698340 -0.0738641242 -0.0075612857 -0.0723713187 0.0691950533 0.0068262044 -0.0172088615 0.0503671932 -0.0358968974 -0.0056018033 0.1030991594 0.0202588814 -0.0552372793 -0.0154178330 0.0844524815 0.1043398254 0.0439960819 -0.0898236952 -0.0227506907 0.0221409259 -0.0395308313 0.0132490953 0.0251035633 -0.0507271664 0.0038551810 -0.0930948664 0.0548409058 -0.0171609832 0.0122033216 0.0890831454 0.0077495419 -0.0071299754 -0.0202105590 0.0095582065 -0.0945170416 0.0375528762 -0.0646495359 0.0482968004 -0.0774766859 -0.0374737438 -0.0087916043 -0.0154798951 -0.0057038994 -0.0228545224 -0.0820045910 -0.0274115795 0.0573036795 -0.1013003302 0.0465164939 -0.0332031512 0.1465799930 -0.0176207295 0.0342192452 0.0675130314 0.0018960785 0.0376541310 -0.0082860246 0.0686122160 -0.0567092020 -0.0295211273 -0.0278697483 -0.0105386440 -0.0396192754 -0.0449633386 0.0183233408 -0.0740316089 0.1048961491 0.0594363428 0.0630044572 -0.0212660094 -0.0972252616 -0.0050370619 0.0035111691 -0.0497775389 0.0007392274 -0.0118776077 -0.0225187369 -0.0713105538 0.1020399630 0.0392280950 0.0438026090 -0.0176864545 0.0394423151 0.0690491016 -0.0965820036 -0.0638362082 0.0112074847 -0.0176181188 -0.0593832809 -0.0486057361 0.0278178651 0.0007585878 -0.0218654419 -0.0489951812 -0.0178965166 0.0391954106 0.0273852985 -0.0558846994 0.0150584051 -0.0152819741 0.0130959845 0.0087535281 -0.0626397725 0.0578712941 -0.0529877237 0.0401027829 0.0096016848 -0.0928223106 0.0471938877 -0.1259739700 -0.0202854415 0.0144204512 0.0197073645 -0.1134588475 -0.0286040530 -0.0052252718 0.0132423590 0.1074633840 -0.0285155950 -0.0456488045 0.0308809409 0.1197724381 -0.0292572347 0.0350966982 -0.0172745954 -0.0197120895 0.0652054500 0.0702703549 0.0684027704 -0.0185871949 0.0208551504 0.0026015133 0.0423034921 0.0808654645 -0.0338226651 0.0289420278 0.0242117279 0.0155004631 -0.0475665060 -0.0113938308 -0.0629486515 0.0780952614 0.0353496563 0.0485266656 0.1020358975 0.0949022823 0.0640356546 -0.0114246762 0.0553080469 -0.0103460919 0.0855454779 0.1102642156 0.0487992179 -0.0043777889 0.0260012605 -0.1119506947 -0.0243111396 0.1491810986 -0.0086364493 -0.0256641377 0.1447916255 -0.0138184928 0.0629888001 0.0360735900 0.0011075223 0.0447686880 0.0461982994 -0.0627190422 0.0047962696 0.0261857691 -0.0091051905 0.0804781379 0.0098200916 -0.0238240133 0.1509180787 0.0951856058 0.1474861229 0.0355694228 0.2063052239 0.0879906781 0.0995230240 -0.0159646612 0.0286690476 0.0357685987 0.0446391521 0.1281344161 0.0211133485 -0.0540666095 -0.0254060777 0.0637648933 0.0020311286 0.0192584739 -0.0727915292 0.0346448358 -0.0208902151 0.0043139966 -0.0346153105 -0.0355434285 -0.0708949773 -0.0300293169 0.0493082043 0.1023048622 0.0059028784 0.1098362272 0.2219237597 0.1761298715 0.1588427870 0.1640472414 0.1063705872 -0.0181980381 0.0043688924 -0.0222491055 0.0560677317 0.0005599963 0.0754541223 0.0734818784 0.1459323984 0.0345013369 -0.0601641248 0.0701867449 0.0778087057 0.0098064267 -0.0040123129 -0.0549711639 -0.0625405190 -0.0134969890 0.0423164145 0.0243981645 0.0360279239 0.0903089359 0.1498103630 0.1486723455 0.1140505811 0.2107173687 0.0237887319 0.0783884065 -0.0844608811 0.0269997370 0.0724851289 -0.0708033775 -0.1463961816 -0.0888854736 -0.0685329341 0.0226714947 0.0657883017 -0.0264629167 0.0744175741 -0.0013154354 0.0494723663 0.0608392864 -0.0584772802 0.0236082110 0.0079324845 -0.0711096143 -0.0092852685 0.0554718547 0.0750584254 -0.0005252789 0.0928875506 0.1249615650 0.1554883059 0.0208921370 -0.1965450469 -0.1408232703 -0.0798747254 -0.0572764864 0.0076376586 -0.1478933560 0.0053839878 -0.0390216033 0.0023617600 -0.0754750410 0.0973392734 0.0102883463 0.0636653091 -0.0430644308 0.0000130096 0.1160125932 -0.0303360477 -0.0081582694 -0.0472659723 -0.0274951435 0.0057390784 0.0341219218 -0.0124940328 0.0601800735 0.0592464336 0.0067066165 0.0498581307 -0.1514371255 -0.2775898776 -0.3115761324 -0.0570942152 -0.0001262702 0.0107118910 -0.1680929085 -0.2088343873 -0.0662182902 -0.0636976610 0.0417897805 -0.0359793611 0.0495392491 0.0976599008 -0.0340903495 0.0292449771 0.0379286354 0.0270843336 -0.0564470562 0.0196316401 -0.1022129846 -0.0075290203 -0.0328323380 0.0983989571 0.1629603511 0.1332341795 -0.0233431627 -0.1171605395 -0.2425120924 -0.3197303172 -0.1444918659 -0.0947768784 -0.1108264499 -0.0462096096 -0.1377346461 -0.0539285835 -0.1806940148 -0.0715807932 -0.0014174715 0.0387250677 -0.0381054120 0.0414744189 -0.0006336359 -0.1572017233 -0.0558295404 -0.0405508043 0.0443366524 0.0118606058 -0.0866205418 0.0418756845 -0.0007560774 -0.0083929032 0.1437260450 0.1131802201 -0.0305644276 -0.1185260767 -0.2102643784 -0.1157678060 -0.1125140158 -0.1318491320 -0.0543161048 -0.1377653058 -0.0602005545 -0.0056640140 0.1127203903 -0.0804906860 -0.0456990672 0.0621221714 -0.0563525103 -0.0453886086 -0.0143499004 0.1012219862 0.0616168936 0.0293244405 -0.0414062345 0.0054694871 -0.0555229920 -0.0204504943 -0.0185307660 0.0486884868 0.0358389338 0.0044051964 -0.1582608251 -0.1986250309 -0.1261207879 -0.0379946327 -0.0358703220 -0.1194675394 -0.1193785731 -0.1170884007 -0.0739073887 0.0674043346 -0.0522576445 0.0160522811 -0.0060604126 0.0705786164 -0.0436885044 0.0088370649 0.0612480145 0.0148933182 0.0057271943 -0.0040944231 0.0482684651 0.0063335396 0.0286655843 -0.0565481345 -0.1920461702 -0.0951682084 0.0511878107 0.0901667998 -0.1031703431 -0.0382049192 -0.1301396877 -0.1402006531 -0.0646899456 -0.0418622506 -0.0291166695 -0.0589598521 -0.0817684056 -0.0075365131 0.0849714966 0.0194472053 0.1579759955 0.1093223619 -0.0337598214 -0.0165706920 0.0306292586 0.0216413283 0.0345739878 0.0021858644 -0.0330417782 0.0226827843 0.0092762491 -0.0862598674 -0.0322539897 -0.0695173595 -0.0784700555 0.0104175836 0.0073211916 0.0019374816 -0.1191059038 -0.1349336208 -0.1715381366 -0.1736164548 -0.1342615752 -0.0572788146 -0.0078273275 -0.0533135999 -0.0247974100 -0.1147758607 0.0072306626 0.0214315966 -0.0625926858 0.0492855731 0.0253949159 -0.0245865028 0.0260520782 -0.0140560736 -0.0112963971 0.0276793323 -0.0499305320 -0.1022062105 -0.0779975345 -0.1900436219 -0.1768941836 0.0978441068 -0.0913192053 -0.0728662349 -0.2699192743 -0.3043787348 -0.2490514811 -0.2215812565 -0.1323619512 -0.0435727013 -0.0339311221 0.0311471702 -0.0121180727 0.0419524444 0.1132333746 -0.1224094494 0.0347091611 0.0248534638 0.0321639638 0.0384401847 0.0156869239 -0.0104003090 0.0562848991 -0.0941739731 -0.0296324929 -0.0817271882 0.0242054718 -0.0144225569 -0.1269653514 -0.1488574583 -0.0702375862 -0.3118807258 -0.4935251887 -0.3928404766 -0.1452587939 -0.0498527248 -0.0795148028 0.0060354899 0.0740844708 0.1164281608 0.0577833603 0.1083447770 0.0108895075 -0.0218354540 0.0171829730 0.0027359063 0.0664378017 0.0108136460 0.0165190385 0.0516751453 0.0142796661 -0.0327870020 0.0391724542 -0.0421036110 -0.0246630186 -0.1536111480 -0.0689894858 -0.1731226000 -0.1777592817 -0.2644687270 -0.4885926874 -0.2401925431 0.0510273703 0.0381498819 0.0500032880 0.0233181414 0.0221805175 0.1895419455 0.1282376996 0.0995026574 0.0682004811 0.0520269840 -0.0080909943 -0.0593390404 -0.0013369680 0.0022694254 -0.0242999955 0.0638324382 0.0311707851 0.1123932426 -0.0650158861 0.0326514203 -0.0874347037 0.0350807547 -0.1327527734 -0.1271025689 -0.0677894775 -0.1486537031 -0.0195951367 0.1378125270 0.2749721333 0.1756730526 0.1001285831 0.0622710850 0.0760430699 0.0026642445 0.1074978219 0.1305336954 0.0186321283 0.0214982900 -0.1189347157 -0.0379408663 -0.0489208504 0.0022101580 0.0203430253 0.0082683718 0.0116093194 -0.0747296663 -0.0276455711 0.0239102033 0.0282294102 0.0295778457 -0.0132869097 0.0688076708 -0.0104296726 0.2282359823 0.2691527767 0.2876215008 0.2486258778 0.1966275524 0.0524250492 0.1091680214 0.0260411973 0.0692093127 0.0991282657 0.0117326572 0.0128017454 0.0283632643 -0.0367905001 0.0144563837 -0.0105157309 -0.0443655427 -0.0876449442 -0.0689661944 0.0135320411 0.0780789536 -0.0411033395 -0.0224654717 -0.1013439433 0.1182956163 0.1072584893 -0.0928272482 0.1278628866 0.2174477481 0.2587444928 0.1958169459 0.2034902326 0.1435047274 0.2005444579 0.0235902518 0.0073773805 0.0226736426 0.0362279409 0.0544489035 0.0975321892 0.0538411641 -0.0074560348 0.0385713620 0.0310989223 -0.0502121333 0.0451550839 0.0312946810 0.0078769492 -0.0196577918 0.0709353647 0.1065012145 -0.0451735783 0.0167800262 -0.0608621043 0.1123300743 0.1390006142 0.0949440034 0.1073502080 0.2638224866 0.1705837988 0.0985238374 0.1255177156 0.0068232687 0.0873724296 0.0868530597 -0.0000708156 0.1108516631 -0.0012119859 0.0140785117 0.0204384839 -0.0015025465 0.0810914606 0.0305173450 -0.0516808925 -0.0303635880 0.0976233591 0.0482802807 0.0865868337 0.0720182520 0.1134868551 0.0885538225 0.0928873845 0.0280092351 0.1264340338 0.1943123275 0.1981948303 0.1622451379 0.0940429850 0.0754956010 0.1474793500 0.1182258849 0.0274542439 0.0232657079 0.0945164393 0.0220555229 -0.0612022313 0.0030516130 0.0884573409 0.0671009996 -0.0437513279 -0.0172115126 0.0036762321 0.0092435518 0.0204562965 0.0602587407 0.0079126058 0.0002011278 0.0487828050 0.0314869821 0.0370390909 -0.0486400064 0.0039095502 0.1365272765 -0.0320832278 -0.0572781485 0.0080812285 -0.0583780825 0.0349190228 0.0256811999 0.1248675118 -0.0047324633 0.1090943436 -0.0567691220 0.0230778107 0.0430669986 -0.0620017322 0.0752477097 0.0563566397 0.0870600322 0.1355259359 -0.0674061440 0.0233835670 -0.0274903489 0.0498552682 -0.0386218160 -0.0028568543 0.0417619041 -0.0045113074 0.0172496257 0.0911360001 -0.0109026187 0.1040576049 0.0808151060 0.1226775287 0.1073660322 0.0898080165 0.0374972641 -0.0233072336 0.0673015875 -0.0103758717 -0.0245388809 -0.0038638597 0.0145179630 -0.0822800611 -0.0052994729 -0.0185637067 0.0067860055 0.0453603377 0.0386538427 0.0146513590 0.0819224083 -0.0362106234 -0.0095309463 0.0659802878 -0.0942791610 -0.0438125974 0.0877948223 -0.0209754080 -0.0143628591 0.0700821789 0.0092788424 0.0461726776 -0.0394940408 0.0313451136 -0.0068210644 -0.1283879209 0.0181579345 0.0355840377 -0.0118876253 0.0358529141 -0.0394130510 0.0073628869 0.0631112151 -0.0624327378
-0.0967856017 -0.0301023881 -0.0156395964 -0.0470248693 -0.0243475553 0.0523870237 -0.0163160219 -0.0093963984 -0.0091812354 0.0139705151 -0.0296358766 0.0083784539 0.0257097195 0.0089885672 0.0162565459 -0.0259282575 0.0035392042 0.0669672246 0.0086517403 -0.0358675928 0.0364319420 -0.0163403647 0.0168635186 -0.0054420932 -0.0008829688 -0.0376867214 0.0471908978 0.0742439594 -0.0308405246 0.0424094070 0.0023916835 -0.0409509238 -0.0417654646 0.0111239603 -0.0283286925 -0.0007470948 0.0451436191 -0.0166024343 -0.1420542142 -0.0387753514 0.0438980786 -0.0232939188 -0.0665254266 -0.0256894181 -0.0007488733 0.0535573406 0.0315878008 -0.0345775577 0.0570660283 -0.0007213787 -0.0448260729 0.0174225232 0.0313989549 0.0575581658 -0.0241632742 0.0793596838 -0.0585398504 -0.0432656095 0.0010748849 0.0016737786 -0.0270415937 0.0288223823 0.0615943949 0.0850342542 -0.0027488876 -0.0045105826 0.0236017634 -0.0907325757 -0.0047774707 0.0445357176 0.0038011770 -0.0618065348 0.0198322665 -0.0226262056 -0.0192590775 -0.0933801238 -0.1134497262 -0.0439892047 -0.0535937061 -0.0083533087 0.0854112658 -0.0841069526 -0.0505870162 -0.0123139668 -0.0557646693 -0.0463841784 -0.0982857909 -0.0070507616 0.1368913057 -0.1203284753 0.0131438948 0.0112075749 -0.0500317937 0.0565154027 -0.0538540605 -0.0108548122 0.0652108002 0.0798950823 -0.0900430920 -0.0668177950 -0.0365734724 -0.0808414682 0.0146729632 -0.0530282086 -0.0383243145 0.0024294944 -0.0650338730 -0.0859047454 -0.0332616698 -0.0074130719 -0.0202036861 -0.0720064173 0.0095305479 0.0779479347 -0.0692215119 0.0393597888 0.0462267636 0.0214595987 0.0194258336 0.0050014614 -0.0315793173 -0.0768116687 -0.1287834967 0.0327477427 -0.0810497817 0.0255980971 0.0005309961 0.0427880443 0.0652640172 -0.0208755642 -0.1052856534 0.0019867590 -0.0369952905 -0.0367982149 -0.0400915361 0.0156444148 -0.1608697796 -0.0179337435 -0.0221123413 -0.0384947922 -0.0266175502 0.0644146442 0.0814671240 0.0823641498 -0.0099615334 0.0211109525 -0.0306214458 -0.0281549311 0.0928081327 0.0174592581 0.0374088782 0.0205573335 -0.0169876559 -0.0588317970 -0.0342993512 -0.0570216381 -0.0364580414 0.0057679806 0.0249536904 0.0948406159 0.0825862778 -0.0106919729 0.0223191581 -0.0194284888 -0.0224334155 0.0119477132 -0.0503951382 -0.0294590419 0.0362045167 -0.0476913256 0.0679045491 -0.0046307562 -0.0537063903 0.0627100445 -0.0524319702 0.0113766013 0.0512129535 0.0173963253 0.0621553611 0.0227559782 -0.0804094298 -0.0283815737 -0.0387518487 0.0390429937 -0.0017447388 0.0048939040 -0.0541392236 0.0164885124 -0.0458564723 0.0174126039 -0.0298839788 0.0633192555 0.0190468640 -0.0895287719 -0.0279281439 0.0114448132 -0.0207810777 -0.0335774531 -0.0437072091 0.0353186748 0.0726788436 0.0394360993 0.0359380099 -0.0992551635 0.0365724299 -0.0488496753 -0.0560685705 -0.0098410274 -0.0174337444 -0.0458598180 0.0522019244 -0.0493804592 -0.0170052399 -0.0756614064 0.0511524609 0.0807056483 -0.0326099946 -0.0483866936 -0.0053518594 -0.0042465098 0.0317038231 -0.0133815644 -0.0389663985 -0.0122461253 -0.0301747010 -0.1082035042 -0.0128043376 -0.0269566684 0.0248643399 -0.0248536873 -0.0120325215 0.0677717436 -0.0724347492 0.0415279319 0.0399061071 0.0568325692 0.0221998624 -0.1012310419 -0.0669614626 0.0076517250 -0.1547812363 0.0333497225 -0.0297007615 0.0352162614 0.0451710126 -0.1097954084 -0.0129029623 -0.0542885786 0.0019423558 0.0221620075 0.0153420141 -0.0605932945 0.0009526286 0.0745655827 0.0097213079 -0.0536363102 -0.0257642074 -0.0760854885 -0.0825067537 -0.0084420112 -0.0776479085 0.0081716308 0.0840056259 -0.0637287694 0.0169998056 0.0014291002 -0.0292151038 -0.0293159092 0.0062468584 0.0659699404 0.0508109491 -0.0422244786 -0.0310450450 0.0137222072 0.0334312415 0.0298339991 -0.0761834510 -0.0658833773 -0.0108210272 0.0954028353 -0.0350363589 0.0114160224 0.0369348783 0.0523152562 0.0350080236 -0.0717949056 -0.0648157409 -0.0381458896 0.0364318020 0.0527853516 0.0013528596 -0.0047934138 -0.1172795350 -0.0421168282 -0.0804538407 0.0333986788 -0.0615010574 -0.0858527388 0.0347728622 -0.0914816805 -0.0456042290 -0.1228202081 0.0769793046 0.0425279010 0.0444765553 -0.0023732849 -0.0441544772 -0.0455483836 0.0416206006 0.0171280049 -0.0663225193 -0.0303008235 0.0337018627 -0.0583286490 -0.0506218548 0.0485968695 0.0150071554 0.0287489733 0.0677044594 -0.0513651106 -0.0052329565 -0.0350469780 0.0930481693 -0.0022686245 -0.0068488289 -0.0635786228 0.0180836807 -0.0007222551 -0.0526221867 -0.0113626393 -0.0418681943 0.0913290848 0.0616481177 0.0553311978 0.0030650051 0.0293427814 -0.0044949130 -0.0146665015 0.0849677311 -0.0409209576 0.0565678422 -0.0393302820 -0.0581941769 0.0214257642 0.0544095954 0.0622647379 -0.0008664449 -0.0067434055 0.1068267360 0.0167813236 -0.0005992343 0.0009617320 -0.1436346550 0.0605142161 -0.0781639205 0.0508423697 0.0121143673 -0.0159007990 -0.0591643633 0.0485710390 -0.1055893810 -0.0335703921 0.0753571394 -0.0329807153 -0.0690812292 -0.0885844490 0.0134118060 -0.0504567103 -0.0648914010 -0.0437934760 0.0691233600 0.0123076221 0.1018819369 0.1126439386 0.0190317345 0.0589652450 0.0389131201 0.0482536278 0.0290775980 -0.0745481197 0.0519794004 -0.0884134744 -0.0321284825 -0.0372233962 0.0069915927 0.0495547130 0.0316474125 -0.0774248498 -0.0304796203 0.0199868442 -0.0449574630 0.0590656602 -0.0231704029 -0.0309451619 0.0478771994 0.0137794361 0.0065704229 0.1004911176 0.0467317910 -0.0080432871 0.0297089946 0.0213158433 0.0113363168 0.0865386825 -0.0026814136 0.0493848203 0.0083544810 -0.0748179147 0.0275209745 0.0116567180 0.0146954736 0.0269247147 -0.0064802881 0.0752482008 -0.0342641232 0.0499206849 0.0747411554 -0.0043344316 0.0714506866 0.0883141428 0.0082935808 -0.0554561379 -0.0653126942 -0.0554945568 0.0177596001 0.0480718270 0.0485666957 -0.0015460654 0.0800253171 0.0444667230 -0.0412635072 -0.0134273904 -0.0068449993 0.1637825548 -0.0224318441 -0.0202948810 -0.0242071951 0.0214185083 0.0696225900 0.0724800619 -0.0516558406 -0.0005436874 0.0317072104 -0.0014982304 -0.0538347512 0.0018382713 0.0292634406 0.0149000867 -0.0337196066 0.0118844659 0.0120708818 -0.0018607571 0.0146607708 0.0974106895 0.0643380528 -0.0083789616 0.0601002082 0.0419171397 0.0136973860 0.0894539871 -0.0422112386 -0.0326588513 0.0231896296 0.0433045111 -0.0554537313 -0.0151543001 0.0102382736 0.0981340976 -0.0608610655 -0.0260973946 0.0573718837 0.0192444642 0.0258361463 0.0086745551 0.0390042942 0.0358531697 -0.0991361609 0.0529936522 0.0240247784 -0.0458415756 -0.0275650838 0.0362762396 -0.0392073531 0.0006875997 0.0132175393 -0.0829108733 -0.0351411307 -0.0109064321 -0.0338214179 -0.0103618790 0.0164121686 0.0433118467 0.0048750512 0.0756835915 0.0810093152 -0.0175466852 0.0177637128 -0.0418491411 -0.0729315390 -0.0990891983 -0.0798588598 -0.0208100215 -0.0216227185 0.0182218238 -0.0310991107 0.0086140488 -0.0078895128 0.0454611252 -0.0212116197 0.0065101330 0.0199157252 -0.0063560225 -0.1217314380 -0.0114751469 -0.0731184324 -0.0103955026 0.0294865535 -0.0098289376 -0.0621547667 -0.0240882372 0.0228707326 -0.0096042065 0.0953159810 -0.0037181515 -0.0400510170 -0.0111500778 0.0963509185 -0.0242083160 -0.0852588842 -0.1018490811 -0.0507249845 0.0354066740 0.0147197651 -0.0467934961 -0.0123257075 -0.0505218947 0.0000282384 0.0029109941 -0.0906290724 -0.0056448820 -0.1118028554 -0.0830736074 -0.0265663926 0.0401146611 0.0859888580 -0.0193385933 0.0019523680 -0.0852863851 0.0469383738 0.1148607799 -0.0250256308 0.0247086616 0.0697958271 -0.0580552671 0.0172091664 -0.0505834327 0.0302901747 -0.0106652711 0.0340607934 0.0028284749 0.0731622951 0.0329940687 0.0184215258 0.0271300173 0.0514001537 0.0098141164 0.0456721883 0.0248853515 -0.0369334346 -0.0498122187 -0.0564149485 0.0490396219 -0.0726984521 0.0093574751 0.0082896521 0.0463688940 -0.0043054177 -0.0247066147 0.0015507431 0.0217554701 -0.0334849521 -0.0517915003 -0.1133214786 0.0136254774 -0.0222723738 0.0151456513 0.0070819559 0.0082793778 -0.0443448290 -0.0278636194 0.0591636351 -0.0352938949 -0.0979220895 0.0362225104 0.0138551272 0.0237301803 -0.0944303485 -0.0464043240 0.0053838215 0.0585103218 -0.0205064834 0.0000143372 -0.0116099910 0.0035398527 0.0049128757 -0.0369172276 -0.0158178008 0.0253183507 0.0134169387 0.0248083728 -0.0577288846 -0.0407812439 0.0661489839 0.0375743799 0.0078918121 -0.0087204756 0.1230419626 0.0425384820 -0.0283802994 -0.0221811298 0.0200863596 -0.0386377671 0.0662077038 -0.0131182668 0.0716685084 -0.0365049610 -0.0815489022 -0.0709782781 -0.0053188362 -0.0786150607 -0.0100951421 -0.0136081385 -0.0026599740 -0.0587984827 -0.0046693710 0.0109556967 0.0297257235 -0.0611146931 -0.0866448809 -0.0631675513 -0.0727227141 -0.0064282008 0.0508534738 0.0698410288 -0.0028450714 -0.0405795639 0.0323639064 0.0172793815 0.0691429447 0.0155953447 -0.0212280138 -0.0122475213 -0.0115073257 -0.0293972181 -0.0455530732 0.0263821720 0.1014908023 -0.0110165544 -0.0741979543 -0.0367916777 0.0030600363 -0.0330859731 0.0656811727 -0.0473112929 0.0770480358 0.0280862640 -0.0179004402 0.0475837461 0.0150323213 -0.0210521139 0.0032170989 0.0057004993 -0.1241433351 0.0268239824 -0.0432733446 0.0197035960 0.0398811028 0.0319631663 0.0256032305 0.0118732479 -0.1110083912 0.0585689352 -0.0796529944 0.0286154129 0.1141133256 -0.0556728364 -0.0070660559 0.0307657279 -0.0350562629 0.0971760639 -0.0626811678 0.0245291784 -0.0657392310 -0.0656635753 -0.0618561540 -0.0684548353 -0.0379233008 0.0756995285 -0.0482623788 -0.0721482487 -0.0357085874 0.0577137251 -0.0093324863 -0.0928395893 -0.0056250571 0.0587022965 0.0052210160 0.0079140752 0.0175442234 0.0526053401 0.0354920283 0.0809237363 0.0778400379 0.1119893657 0.0350461483 -0.0025478588 -0.0389261276 0.0186771296 0.0398250402 -0.0923587946 0.0023295617 0.0104259927 0.0153169991 0.0015508543 0.0245664245 -0.0546640410 0.0030343322 0.0646065190 -0.0481761657 -0.0247911925 -0.0157473686 0.0252431575 -0.1060883737 0.0100244246 -0.0186386677 -0.0557398241 -0.0521170569 0.0030565744 0.0012146496 -0.0248016444 -0.0178575658 -0.0058418319 -0.0519765414 -0.0179451750 -0.0051268898 -0.0023116482 -0.0172743149 0.0326399555 0.0329280698 0.0242080195 0.0297380699 -0.0447384938 0.0325844595 0.0606955715 -0.0113115809 0.0181620617 0.0549062048 0.0025949858 -0.0643495097 -0.0059415740 0.1149345181 0.1038792549 0.0269567663 -0.0457090541 -0.0786379096 -0.0133694220 -0.0201558352 -0.0385370370 -0.0409516918 0.1443255693 -0.0001473968 0.0858771425 -0.0261087692 0.0120526993 0.0005323025 0.1015557408 -0.0149625246 0.0182806732 -0.0948646481 -0.0451800070 -0.0295886855 -0.1782902010 0.0105411456 0.0244555489 0.0555611631
0.0299710212 -0.0088803679 -0.0242429751 -0.0146599734 0.0378549071 -0.0025733766 -0.1442334312 -0.0288501246 0.0574043793 0.1068927496 0.0177690837 0.0802982537 -0.0225637820 -0.0337261814 -0.0079298379 0.0434378818 -0.0210267119 0.0845168987 -0.0519452279 0.0046105283 -0.0367727734 -0.1272824042 -0.0323877515 0.0294463662 -0.0718974573 -0.0429735601 -0.1422506566 0.0606154663 -0.0322283621 0.0512937115 0.1478566824 0.0386231483 -0.0537453721 0.0386643740 0.0313101459 0.0014734196 -0.0455305993 0.0219372109 -0.0838409560 0.0295482184 0.0794401392 -0.0024928292 0.0992471015 -0.0106649814 0.0239238595 -0.0294515159 0.0062766472 0.0399666339 0.0169654847 0.0191514616 -0.0243532594 -0.0273255560 -0.0224471260 0.0165519663 -0.1015645589 0.0123015343 -0.0038740303 0.0836995320 -0.0240050527 0.0546421032 0.0345523855 0.0528943476 -0.0291672086 0.0496540259 -0.0222348914 0.0407855157 0.0352287985 -0.0239722154 0.0035804593 0.0203213549 -0.0615752199 0.0233729044 0.0554070481 -0.0896412694 0.0248007534 0.0002044442 -0.0537410469 -0.0144898817 -0.0011849685 0.0316961559 -0.0134425077 0.1232058552 -0.0163043410 0.0118722912 0.0320273620 0.0314583595 0.0432481106 -0.0135524401 -0.0249518195 0.0369108307 -0.0246108833 0.0551678224 0.0939324242 -0.0865030009 0.0121216042 -0.0480534712 0.0186887925 -0.0195740774 0.0881004029 0.0169551842 0.0091923440 0.0119362490 0.0330468952 -0.0505728921 -0.0052078130 0.0167601765 0.0023631792 0.0062817033 0.0809990975 -0.0243689712 -0.0335215329 0.0482408714 -0.0198584713 -0.0320195471 -0.0417717390 -0.0030118866 -0.0284373783 -0.0106638862 -0.0768561202 0.0216318855 -0.0381640158 -0.0632706158 0.0195273786 -0.0639977738 -0.1570735037 -0.0309305566 -0.0721734654 -0.0096696503 -0.0479943892 -0.1027853988 -0.0145800822 0.0292265341 -0.0197048166 -0.1405090209 -0.2172789586 -0.0527790256 -0.0556900356 -0.0292105932 0.0714223082 0.0075803019 0.0214956091 0.0237713871 0.1002007380 -0.0096769137 0.0222595286 -0.0221637074 -0.0681207842 -0.0324316826 0.0162064322 -0.0851015003 -0.0509845210 -0.0123386097 -0.0475532566 -0.0532804837 -0.0138100509 0.0491093495 0.0259923328 -0.0979538542 0.0361581373 0.1505848684 -0.0579110979 -0.0205043063 -0.0474398462 -0.0995564310 -0.1970216695 -0.0368739058 0.0189714620 0.0301274417 0.0162260884 0.0095371101 0.0181185988 -0.0280547249 -0.0804681010 0.0960311824 0.0703070869 -0.0592153782 -0.0596678689 -0.0401057266 -0.1218400482 -0.0463307780 -0.0873949930 -0.1504009946 -0.0337262656 -0.0816364421 -0.0492412861 0.0197661403 0.0594772259 0.0213842936 0.1182144481 0.0706190981 0.1314577466 -0.0142378346 -0.0851732144 -0.0417101771 -0.0159207493 -0.1091419229 -0.0640557854 -0.0035186065 0.0748630708 0.0222967970 0.0769495668 -0.0580609235 0.0265860154 -0.1359958423 -0.0625487726 -0.0081935933 -0.0265452473 0.0071758682 -0.0829946807 0.0734403087 0.0607659145 0.0314822432 0.1508266283 0.1608757009 0.1488681283 0.1348233605 0.1365370314 0.0792732362 0.0211479805 0.0353441951 0.1645648598 0.0158967536 0.0093796813 -0.0442835058 0.0588004001 -0.0221832412 0.0310701260 0.0601462549 0.0190401830 -0.0412770788 -0.1204881629 -0.0003751836 -0.0754470707 -0.0061762983 0.0463189834 0.0175232989 -0.0091127792 0.1213250674 0.0445649585 0.1173063391 0.0977724218 0.1474508642 0.1966567372 0.0077448827 0.0642646411 0.1207905107 0.0761139874 0.1255875862 0.1622257239 0.0759833495 -0.0051486630 0.0021498497 -0.0061328490 -0.0458830974 -0.0287007373 0.0401329787 -0.0346293089 0.0811716478 0.0041756920 -0.0763184635 0.0227396962 -0.0977272662 -0.0205048391 0.0612118809 0.0644643656 0.1862835843 0.1152388195 0.0905881207 0.0316571269 -0.0782903570 -0.0147564629 0.0284339330 0.0705294917 0.1178358868 0.0861481661 -0.0486085837 0.2107708156 0.0392372274 0.0762398609 -0.0974392932 -0.0411202612 0.0028637670 -0.0038957527 0.0269404386 0.0898637631 -0.0303661089 -0.0501137121 0.0097812273 -0.0002818710 -0.0367615735 0.0408208115 -0.0240862724 0.1039163971 0.0439870903 0.0473292307 0.0808418764 -0.0092603471 -0.0151425463 -0.0793940936 0.0165892933 -0.1475539949 0.1305811834 0.0459446065 0.0949164216 0.1275463708 0.0816732160 0.0792136870 -0.0425555825 0.0212114145 0.0795923757 0.0069848261 0.0175942812 -0.0434350450 -0.0659215021 -0.0034444245 -0.0093385798 0.0295624509 -0.0326195150 -0.1097289288 0.0075065121 0.0505147077 -0.0367955025 -0.0372695579 0.0753671626 -0.0506196788 0.0691607882 0.0139852494 -0.0803930777 -0.0425331142 0.0689867905 0.0162650755 0.0898374869 0.1723618636 0.0268987205 0.1117000684 0.1150267154 0.0049780097 -0.0259396528 -0.0857499040 0.0549469059 0.0008970361 -0.0228715665 0.0810033915 0.0499985875 -0.0352925851 -0.0808448158 -0.0390217604 0.0070887983 -0.0480262267 -0.1112270487 -0.0185820189 0.0639120609 -0.0570741760 -0.0957465222 -0.0428748390 -0.0277934983 0.1138388931 0.0148884447 0.0404909798 0.0752319074 0.0339029886 0.0253619113 0.0991426454 0.0714610213 0.0171215203 -0.0813697087 -0.0234625371 -0.0346252167 0.0252009677 -0.0238358086 -0.0215484578 -0.0443436745 0.0461769494 0.0348161763 -0.0412200575 0.0374182543 -0.0285859106 0.1095288326 0.1555783413 0.0057652640 -0.0286022849 -0.0957540640 -0.1230279483 0.0151172486 0.0599630316 0.0183417414 0.0380583916 0.0878684949 0.1371967094 0.0357346870 0.0315230621 -0.0202833617 0.0264824192 0.0543327473 -0.0187933627 -0.0502770874 0.1096845328 0.0167213278 -0.0053194844 -0.0103077780 0.0309245519 -0.0863185781 0.0964571980 0.0660326415 0.0660893080 0.0730638780 0.0790010218 -0.0130754995 -0.0184672781 -0.1759849500 -0.0657177398 0.0323988825 0.0418503451 0.0951602116 0.0513741441 0.1863255642 0.0673767709 0.0391942306 0.0485215713 -0.0227624379 -0.0489230085 -0.0212235710 -0.0648399044 -0.0016511140 -0.1091872782 -0.0545816224 0.0877481465 0.0319600809 0.0629710310 -0.0128345138 -0.0448336139 -0.1076367315 -0.0209102746 -0.0092589872 0.0797062457 -0.0772967310 -0.0363645429 -0.1262970841 -0.0480961936 0.0365065197 0.0296078620 0.0827954778 -0.0227750954 -0.0189426867 0.1261197819 0.0915648038 0.1037067551 0.0252120517 -0.0401419253 -0.0232356235 -0.0153877051 -0.0525669908 -0.0412011589 0.0984751458 0.0580037666 0.0575478026 0.0167474666 0.0607256083 0.0020699058 0.0179815322 -0.0464753365 -0.1662687285 -0.1298804222 0.0445462745 -0.0249878554 0.0341370093 -0.0586765686 -0.0815212523 -0.1023911324 0.0544466645 -0.0182416275 0.1268845012 -0.0280274336 -0.0168646356 -0.0121695648 0.0735683986 0.0037656661 0.0568947563 0.0599884041 -0.0395464621 -0.0557309889 0.0283968167 0.0182527190 0.0818898500 0.0976848127 0.1885107250 0.1788886093 0.0349717244 -0.1447515899 -0.1378994637 -0.1054650868 0.0882129104 0.0346442890 0.0013050587 0.0181161737 -0.1096251836 -0.0539787964 -0.0686102989 -0.0766450831 0.1389761049 0.0858140772 0.0498646458 -0.0765637708 0.0437659942 -0.0064698929 0.1437336748 0.0784831583 -0.0629700798 -0.0064703122 0.0276065356 -0.0089863758 0.1212815575 0.1326194565 0.1610773575 0.2208324072 -0.0114195058 -0.1203803766 -0.3011776674 -0.1668514321 0.0813387421 0.0172313712 0.0151331584 0.0595018744 -0.0445561758 -0.1530492043 -0.0442032817 0.0183743298 0.1164670288 0.0628826357 -0.0032574203 -0.0879562184 0.0177127751 -0.0324460405 -0.0319491560 0.0422167649 -0.0010092627 0.0467787415 0.0558835598 0.0330662988 -0.0618184664 0.1284700654 0.0400417016 -0.0012243103 -0.0627089896 -0.1959006615 -0.0271331864 0.0036760895 0.1439412903 0.0994553824 0.0401292598 -0.1211143541 -0.0465083481 -0.1677805984 0.0569992648 0.0107131788 0.0884924638 -0.0307440227 0.0442952664 -0.0124011013 0.0445779609 -0.0837248014 -0.0555063475 -0.0479515571 0.0359451833 0.0491000862 -0.0085584456 0.0435163263 0.1085948535 0.0484099038 0.1010347612 0.0550342892 -0.0477691682 -0.0263479338 -0.0150495459 -0.0402405802 -0.1397377396 -0.1209248678 -0.0214260440 -0.0913742741 -0.0628314579 -0.0505603964 -0.1428217331 -0.0217275135 0.0624668767 0.0429587752 -0.0035248633 -0.0431740542 -0.0558788602 -0.0464638877 -0.1032604322 0.0485307921 0.0103376457 0.0745716503 0.0191226796 0.0172961699 0.0119346649 0.0886464139 0.0230823718 0.0934987535 -0.0808172291 -0.0796541219 -0.1804165114 -0.1547817585 -0.2062331874 -0.1236120819 -0.0613496635 -0.1534400835 -0.0852216592 -0.1243869019 -0.1584945745 -0.1877295720 -0.1188062162 0.0858592463 0.0157481242 0.1016935383 -0.0328219134 0.0091133134 -0.0677034140 -0.0646610933 0.0981115885 -0.0401988118 0.0381803643 0.0594461311 0.0888286505 0.1730343188 0.1835245612 0.1208755258 0.1583661876 0.0415280624 -0.0616306052 -0.1772599040 -0.0380576945 -0.2284078306 -0.0869608681 -0.1706608897 -0.2093932220 -0.0996014296 -0.1947392504 -0.0901761222 -0.0424004067 -0.0520033197 -0.0504859721 -0.0236344041 -0.0066739006 0.0070509709 0.0271953277 -0.0675946835 0.0759669206 -0.0986342803 -0.0762627364 0.0206739051 -0.0531935660 0.1171835387 0.1205359316 0.0868895468 0.1907613602 0.0847441912 -0.0120017754 0.0791431146 -0.0299967923 -0.0126491023 -0.0328974012 -0.0096853602 -0.0640253363 -0.1727919821 -0.0509502150 -0.0264737518 -0.0732076481 -0.0519616136 0.0640209599 -0.0535300762 0.0805528298 0.0256045418 0.0337288970 -0.0549299384 -0.0510390509 0.0390712195 -0.0372482327 -0.0617690883 -0.0502525983 -0.0022746850 0.0458264187 0.0353883230 0.1350965896 0.1524326421 0.1742132824 0.1672315884 0.0674399660 0.0083389636 -0.0087975924 -0.0376013359 -0.0268147885 -0.0554935308 0.0332425971 0.0453792296 0.0483596306 0.0243434829 -0.0834586716 0.1110912537 -0.0263286129 -0.0147437529 0.0811996985 -0.0201381679 -0.0093072690 0.1645859803 -0.0854798656 -0.0607700027 -0.0227517025 0.0137095564 -0.0196710999 -0.0067337159 0.0276067047 -0.0428404822 0.0136993833 -0.0262616707 -0.0408848395 0.0256280186 0.0525872130 -0.0900238072 0.0329730967 -0.0034740549 -0.0082574550 0.0096918634 0.0134425374 -0.0514230404 -0.0016453752 -0.0352402304 -0.0694258992 -0.0220192514 -0.0897224711 -0.0729961553 -0.0522403643 0.0167600338 -0.0076443181 -0.0160058620 0.0893797783 0.0473400308 0.0910572402 0.0397303163 0.0227231928 -0.0056773201 0.0229681735 0.0616198190 0.0451661526 -0.0103731453 0.0509753844 0.1396151752 0.0317772415 0.0742182586 -0.0572412853 0.0136519469 -0.0101408558 -0.0637177703 -0.0070450577 -0.0304989854 -0.0517956790 0.0265751859 0.0187801113 0.0388624290 -0.0246256585 0.0494103255 0.0112221531 0.0342648797 0.0536111472 -0.0030630674 0.0456974905 -0.0081998342 0.0321230575 0.0334216870 -0.0515404862 -0.0341747729 -0.0157387484 -0.0231499042 -0.1221552538 -0.0380669144 0.0106986890 -0.1098065686 0.0167568372 -0.0003856054 -0.0717838548 0.0512698403 0.0244050819 -0.0465161298 -0.0339090312 0.0341725000
0.0104625218 -0.0241065194 0.0334629903 0.1168170727 0.0245679245 -0.0323512673 -0.0094501317 0.0480816523 0.0190646999 -0.0139124063 -0.0063495428 -0.0144847789 -0.0232428242 0.0171889665 0.0796527983 0.0049543395 0.0144627966 -0.0017841497 0.0138864596 0.0209286953 -0.0073786431 -0.0504637434 -0.0367623556 -0.0216267895 -0.0119253908 -0.0489568849 -0.0284617033 0.0509042323 -0.0577093155 -0.0246826182 -0.0147568587 0.0398313272 0.0251510596 -0.0113993116 0.0138762108 0.1263580746 0.0081191195 0.0477399672 0.0111367221 0.0140681097 0.0552591201 -0.0078926893 -0.0217851182 -0.1019967577 0.0683799662 0.0584659493 -0.0128246240 -0.0667084308 0.0271262325 -0.0580437557 -0.0851360230 0.0303903508 0.0213967874 -0.0746711566 -0.0050652980 -0.0688624212 0.0914825761 0.0004487360 -0.0002836119 -0.0210472515 -0.0000583877 -0.0444163461 0.0336780136 0.0102799204 0.1162088471 -0.0006080721 -0.0525794566 0.0182298948 0.0726517033 0.0220340587 0.0472330469 0.0508863133 0.0252804472 -0.0135507753 -0.0086259461 0.0257167897 0.0426684866 0.0146342742 0.0212525570 0.0296703437 0.0899180234 -0.0884541427 0.0639920877 0.0132153049 -0.0733461176 -0.0224037041 -0.0496065547 0.0213305648 -0.0319669192 0.0483365219 0.1399129576 -0.0540405846 0.0739860745 0.0705697792 0.1028339496 0.1064774917 0.0409689644 0.1071512114 0.1557943815 0.0595267553 -0.0549574940 0.0048083081 0.0054034327 0.0744233264 0.0281909641 0.0656621454 -0.0087884939 0.0199511976 -0.0096951245 0.0039191526 -0.0230644469 -0.0274464018 -0.0035684468 -0.0217914672 -0.0054722310 -0.1241759258 -0.0572818512 -0.1076894996 0.0237834271 -0.0318356539 -0.0145401371 0.0495014507 0.0431708295 0.0181530234 0.1151171951 -0.0064503603 -0.0687682148 -0.0189413017 -0.0297257459 0.0741902188 0.0187991076 -0.0128541644 0.1625168229 0.0182218787 -0.0530383394 -0.0746406593 -0.0546456962 -0.0037441503 0.0436179441 0.1277977224 0.0168971141 -0.0170957919 0.0174255333 -0.0158655408 0.0340799347 -0.0357387329 -0.0376473647 0.0134249113 0.0128961951 0.0575833599 0.0167344176 -0.0416878940 0.0276213939 -0.0511868968 -0.0321858093 0.0485087879 0.0402548109 0.0292741922 0.0580286407 0.0583417408 0.1122270934 0.0549026795 0.1068329292 0.0004985184 -0.1121779544 0.0333913702 -0.0277561474 -0.0402456747 -0.0081103951 -0.0308505049 0.0012511811 0.0374598132 -0.0652498204 0.0203733060 -0.0385614977 0.0406472621 0.0285120536 0.0287012626 0.1046355462 0.0433545848 0.0429756749 0.1025712854 0.1079045818 0.0839712144 0.1664684306 0.1002519187 0.0205355431 0.0971721669 0.0618309080 0.0262697280 0.0370824182 0.0087638026 0.0101091105 0.0440317613 0.0203291497 -0.0545652707 0.0625107106 -0.0157005287 0.0113980683 0.0419512790 0.0037425003 -0.0921734857 -0.0269273623 0.0467826195 0.0167495524 0.0755659778 0.0497651529 0.1173019469 0.0531568066 0.1193125511 -0.0175144413 0.1148530278 0.2114009378 0.1622840316 0.0813806826 0.2190840371 0.0541896672 0.0800464633 -0.0690954107 -0.0127920586 -0.1554184385 -0.1196277827 0.0502119616 -0.1090235916 -0.0474682290 0.0917612387 -0.0213180447 0.0534264719 -0.0211980251 0.0524776859 0.0056302125 -0.0098588070 0.0228754329 0.0826788793 0.0829201607 0.1520822470 0.1014373150 0.0159544064 0.0651059143 0.0666622049 -0.0938850663 -0.0073828522 -0.0379862977 -0.0526518399 -0.0274869380 0.0285683240 -0.1460012621 -0.2017488471 -0.1149887318 -0.1132840447 -0.1011937870 -0.0033287384 -0.0193821267 -0.1185755229 0.1156552033 0.0589126421 -0.0904300960 -0.0271234335 0.0953351380 0.0341940615 0.0981359080 0.1215260907 -0.0117951884 -0.0478732490 -0.0416248915 0.0285873083 -0.0937758301 -0.1091200669 -0.2116279465 -0.2160610412 -0.1311452014 -0.1852972339 -0.0608445630 -0.1678240308 -0.0964290319 -0.0452331851 -0.1318249880 -0.0416414795 -0.0167726748 0.0563572705 -0.0543933670 0.0188276011 0.0006133259 -0.0947425913 -0.0502794428 -0.0382337221 -0.0361631580 0.0684306457 0.0888182678 0.0164450853 -0.0172381662 0.0111868956 0.0362892461 -0.1175546746 -0.1660138054 -0.1915402908 -0.2818149408 -0.3073016755 -0.2891796357 -0.2553613701 -0.0678369840 -0.1181318023 -0.0299744025 -0.1898906759 -0.0210767578 -0.0764507544 0.0205340948 0.0463997490 -0.0729231572 -0.0215845324 0.0119759437 0.0428201160 -0.0656838121 0.0464766711 -0.0091630312 0.0311564219 -0.0314800899 -0.1558024631 0.0092113398 -0.1236836308 -0.0531674706 -0.0664434751 -0.1545950111 -0.1054577646 -0.2581663269 -0.1883294408 -0.2297457785 -0.2343415134 -0.0545263549 -0.0943707353 -0.0841295848 -0.1218887503 0.0119578302 0.0477385510 0.0294220963 -0.0317076239 -0.0686153039 -0.0459908695 0.0389965280 -0.0568808454 -0.0005813263 -0.0062214121 -0.0030791921 -0.0331186632 0.0010669633 -0.0333218318 -0.0372817229 -0.1320906789 -0.2119556738 -0.0779220847 -0.2261495395 -0.0668575001 -0.0747494176 -0.1048801741 -0.0156250110 0.0158756613 -0.1183030534 -0.1001993791 -0.0544402564 -0.0484662258 -0.1164130950 0.0123045624 -0.0219563165 -0.0216273391 0.0699556899 0.0332764304 -0.0067880155 0.0140094451 -0.0573562636 -0.0855467000 -0.0645030884 -0.0906386663 -0.0469140722 -0.1118261170 -0.0870151835 -0.0902113226 -0.0334567156 -0.0146832007 0.0452496952 0.1187551485 0.0147342028 0.0607443698 -0.0451796708 0.0606645809 -0.0184993832 -0.1754640315 -0.0796332620 -0.2167504131 0.0532394544 0.1400688254 0.0056953318 -0.0385407995 -0.0587789224 0.0451934895 -0.0023421747 0.0056902458 0.0224277197 -0.0736620733 -0.1316778564 0.0678040908 0.0431278372 -0.0752060792 -0.1626587627 0.0756153218 0.0768473274 0.0404556888 0.2239818882 0.1758134097 0.0678601659 0.1098031732 0.0391426010 0.0857547618 -0.0052743714 -0.0486089136 0.0317773478 0.0344718930 0.0387985839 -0.0272537274 -0.0275340914 0.0896916472 -0.0938440902 -0.0497458710 0.0110979085 -0.0224055123 -0.0419219079 -0.0755591424 -0.0515771424 0.0381021349 0.0035441911 0.0127662593 0.1203262239 -0.0287769191 0.0199880818 0.0826174821 0.1549457095 0.1625763239 0.0381831256 0.1211061298 -0.0842347644 0.0465961266 -0.1025935662 -0.1200561695 0.0314364345 -0.0304351814 0.0390223632 0.0916325684 0.0132042259 0.0762343979 0.0647250295 0.0022690703 -0.0491711221 0.0308939173 -0.0262450894 -0.0247267242 -0.0757379274 -0.0873489277 0.0285388245 -0.0458868171 0.0055856263 0.0301774427 0.0256896856 0.0885505002 0.2650664453 0.1639079721 0.1069114475 0.0545735372 0.0132686987 0.0122926462 -0.0595470715 -0.0135408745 -0.1113111536 -0.0072660421 0.0100647269 0.0560467721 0.0477117140 -0.0200746078 0.0011099577 -0.0504688740 -0.0371819251 -0.0580079989 0.0580453507 0.0053033272 -0.0861875496 -0.0142372162 0.0263063251 0.0295743067 -0.0841361161 -0.0135943265 0.0058021850 0.1005414299 0.1724987185 0.1381767817 0.0861257679 0.0888162258 0.0054828005 -0.0977956433 0.0104259125 0.0594707692 0.0055928913 -0.0155755205 -0.0441780963 0.0988899462 0.1018042216 0.0015867229 0.0796724514 0.0571997696 0.0176992868 -0.0308727652 0.0939674887 0.0158134493 -0.0804644360 -0.0290561067 -0.0650882462 -0.0338912634 0.0000701572 0.0025501999 0.0440118809 0.1329143217 -0.0158618543 -0.0348546553 0.0685799867 0.0767577441 0.0807441768 -0.0207794894 -0.0384412003 0.0648023192 0.0122624277 -0.0098944308 -0.0023617257 -0.0159116267 0.0880816784 0.1116989673 0.0495996525 0.1071163025 0.0185953294 0.0455049943 0.0252659892 0.0053744516 -0.0232865286 0.0209175641 -0.0486773934 -0.0287729013 -0.0246019051 0.0937236821 0.0526807484 0.0967203009 0.0759779691 0.0695689243 0.0922951188 -0.0762697697 0.0305685449 0.0525737302 0.0969528190 0.1615987926 0.0354719174 0.0225886358 0.0752123100 0.0903993129 0.0532192920 0.0063098448 0.0291332401 -0.0566651467 -0.0565202872 0.0688985901 0.0543021372 -0.0008344833 0.1045479654 -0.0484160474 0.0060508790 0.0240790127 0.0395530474 0.0691083776 0.0624713037 0.1209494533 0.0209385784 -0.0451281292 0.0914576063 -0.0066485903 0.0071969931 0.0383868182 0.0494658391 0.0884274390 0.0931463951 0.0090849051 0.0816526111 0.0833834419 -0.0294093954 -0.0645902763 -0.0594635225 0.0311480721 -0.0025426353 0.0901744135 0.0245138506 -0.0000870010 -0.0409967547 0.0875341607 0.0072054860 -0.0591674545 -0.0137328188 0.0228128052 -0.0238427756 0.0020128268 0.0488213384 0.0072677984 0.0458816966 0.0711460015 0.0768709464 0.1008234106 0.1351506030 0.0439285521 -0.0137061292 0.0558393958 0.0060566435 0.0607995972 -0.0473992168 0.0690983681 -0.0084188390 0.0507051663 -0.0189226768 0.0774465415 -0.0598081261 -0.0204516234 0.1257173673 0.0573736454 0.0600780010 -0.0565295034 -0.0149242049 -0.0010745078 -0.0294490267 -0.0414478091 -0.0993849568 0.0364726945 -0.0710464216 0.0270999760 0.0301559005 -0.0076904532 0.0763246805 0.1066664871 0.0923512450 -0.0617196522 0.0190466296 0.0265483911 -0.0288176197 0.1153467488 0.0639343212 -0.0410570927 0.0557010048 0.0364347431 0.0449108785 -0.0112918687 0.0071061589 -0.0200832216 -0.1142039234 -0.0327771215 0.0199962141 -0.0706892555 -0.0900420632 0.0036736936 -0.0456115284 -0.0409368108 0.0080136006 0.0388740792 -0.0756935976 0.0376400167 -0.0016409323 0.0469052412 0.0259272081 -0.0077072781 0.0795071643 -0.0149120580 0.0229347428 0.0154192987 0.0381517607 0.0100746036 -0.0711461393 -0.0435632357 -0.0092983728 0.0070337742 0.0379698270 -0.0598920562 -0.0577937518 -0.0806601372 -0.0305731787 0.0163950790 0.0133410531 0.0205642507 -0.0262071459 0.0276072710 -0.0229060657 0.0076819549 0.0020543880 0.0488386552 0.0931694470 0.0044490305 0.0015984989 0.0167270557 -0.0456202845 0.0010186952 -0.0321052065 0.0426790761 -0.0038043476 -0.0502933211 0.0457016559 0.0669525546 -0.0290488532 0.0027016576 -0.0308273095 -0.0171328156 0.0088389720 0.0103314801 0.0347011464 -0.0062699805 0.0372477017 0.0132913332 0.0597569330 0.0062908966 0.0204410370 0.0244311141 -0.0469019176 0.0384547617 0.0710692051 0.0643395673 0.0661589819 0.0038949572 -0.0363197063 0.0915436634 0.0180382818 0.0530832082 -0.1068424757 0.0729623933 0.0456452464 0.0314176263 0.0320719210 -0.0513783966 -0.0369295472 -0.0302312941 0.0027302950 0.0173834029 -0.0452899667 -0.0622910200 -0.0343086221 0.0641126621 -0.0350829376 -0.0664450880 0.0046585516 -0.0519106339 -0.0254585186 0.0306327884 -0.0164648186 0.0692294625 -0.0063594978 -0.0579438124 -0.0076730499 0.0105843494 -0.0365881444 -0.0266162441 0.0257341216 -0.0708599059 -0.0370736969 0.0102393573 -0.1216791739 -0.0061897557 -0.0164974889 0.1030932848 -0.0778699901 -0.0197631465 0.0302839825 0.0271016704 -0.0648117928 -0.0172594899 0.0458808809 -0.0564569478 -0.0657876420 -0.0206359154 -0.0370645801 -0.0341327664 0.0175931339 -0.0338079546 0.0578177247 -0.0062108167 -0.0689368680 0.0506969337 0.0369247747 -0.0040507267 -0.0295231833
-0.0764623017 0.0459022854 0.0280292724 -0.0777140339 0.0293475029 0.0169466012 0.1038488237 0.2026440669 0.0445902936 0.0098182513 -0.1291889095 0.0036980512 -0.0593084400 0.0185069604 0.0223474758 0.0663103581 -0.0043973312 -0.0411922307 0.0592445008 0.0506436901 0.0495743635 -0.0531892042 -0.0027428814 -0.0061773373 -0.0004177543 -0.0289312889 0.0344180161 -0.0360783992 -0.0704936236 0.0539261644 0.1046266515 -0.1235286114 0.0770235891 -0.0136206680 -0.0764923419 -0.0183996341 -0.0934909185 -0.0100186129 0.0835121945 0.0266382747 0.1167568483 -0.0255618756 -0.0367015173 -0.0841407042 -0.0030406843 -0.1057355700 -0.0600637892 -0.0578127463 0.0041659945 -0.0318721185 0.1044698043 -0.0502045760 -0.0453415744 0.1177719534 -0.0969467439 -0.0053747307 -0.0384481102 0.0371513140 -0.0045190157 -0.0575468455 -0.0455494107 0.0020169373 -0.1265195992 -0.0973938585 0.1134466009 0.0426741001 -0.0750628409 -0.0286500682 0.0222696541 0.0157986833 -0.0261581599 -0.0160336980 -0.0377130423 -0.0593466172 0.0322864726 -0.0061937324 -0.0135712525 -0.0161668157 0.0095838853 0.0106416251 0.0344048090 -0.0096083043 -0.0127548549 0.0350273677 0.0194945611 0.0527526971 -0.0237952404 -0.0161718497 -0.1008506799 -0.1104118332 -0.0518256644 0.0340227147 -0.0096914938 0.0461771319 -0.0626088953 -0.1588680950 0.0068676196 0.0650164015 0.0217941488 0.0336421696 0.0714278423 -0.1249154110 -0.1451598707 0.0540002195 -0.0199842100 0.0067155168 0.0917525306 0.0404107289 -0.0616693365 -0.0114682081 0.0475069637 0.0589605104 0.0461111310 0.0117493675 0.0332883484 -0.0496192129 -0.0241936780 0.0619433710 -0.0817909770 0.0271378954 -0.0298567882 0.0425564527 -0.0948503618 -0.1083958406 -0.0193618778 -0.0184425127 0.0339040430 0.1026841651 0.0467404631 0.0420367005 0.0154800565 -0.0553753672 0.0114074937 0.1048296690 0.0249922970 0.0099654916 0.0344144685 0.0409217058 0.0181075955 0.0072144999 -0.0257290793 0.0369944770 -0.0860205400 -0.0250322506 -0.0142708297 0.0500043709 -0.0050864472 0.0670684525 -0.0177127393 0.0183362608 -0.0156140346 0.0284197438 0.0685221082 -0.0019208433 0.1366314716 0.0695434900 -0.0063686167 0.0411556152 -0.0185353676 -0.0935704869 0.0400067458 -0.0959559405 -0.0203064397 -0.0789398133 0.0838713187 0.0124674691 -0.0134398552 -0.0006268465 0.0233520550 -0.0094588968 0.0325360321 0.0020003183 -0.0199558408 -0.0047299284 0.0496853179 -0.0251638404 0.0408367032 0.0322618225 -0.0229159958 -0.0863720485 -0.0817098575 -0.0010312200 0.0621402628 0.0331466097 0.0471058299 -0.0308607501 -0.0307801658 -0.1715400433 -0.1278965340 0.0478303835 -0.0738221094 -0.0645852024 0.0198414017 -0.0021008659 -0.0287111758 0.0540360818 0.0441793429 0.0218455229 -0.0684612001 -0.0645989617 -0.0231452482 0.0291831910 -0.0035525453 -0.0746804881 -0.0432476807 -0.0197671472 -0.1250782132 0.0331376893 0.0028539899 0.0082704153 0.0506987821 -0.0404412506 0.0788347029 -0.0382720145 0.0781177847 0.0352985564 -0.0219099834 -0.1062362357 -0.0466300167 -0.0743718637 0.0233563729 0.0300228145 -0.1329280444 -0.0771624840 0.0346824838 0.0598614994 -0.0254040520 -0.0219419869 0.0411339012 0.0653592984 0.0150034537 0.0018974254 -0.0978065465 0.0362838327 -0.0117925291 -0.0978796178 -0.0162155132 0.0598199900 0.0929034008 -0.1175128657 -0.0128957987 0.0537856913 0.0501872038 -0.0930757316 -0.0183633481 -0.1161743639 -0.0577964369 -0.1462535275 -0.0099319370 -0.0170344509 0.0266740688 0.0266270947 0.0458006030 -0.0356809166 0.0019475656 0.0212003453 0.0288350655 0.0387996318 -0.0043636502 0.0035439546 0.0368719656 0.0160617388 0.0312939811 -0.0319446371 0.0860244914 0.0173412480 0.0174755793 -0.1043480583 -0.0293687937 -0.0582373511 -0.0297490085 -0.0851275662 -0.0986736840 -0.0234014242 0.0429693702 -0.0889200119 0.0180514071 -0.0461783340 -0.0507940335 -0.0480323571 0.0063041464 -0.0545801336 0.0313967141 0.1053202330 0.0403159507 0.0648411670 -0.0753707584 -0.0169833027 -0.0364354248 0.0082515205 0.1094367363 -0.0067706048 0.0862837911 -0.0013754443 -0.0653758289 -0.0185430821 -0.0239596520 -0.0720916323 -0.0000466111 -0.0675989163 -0.0010116860 0.0185783911 0.0187213947 0.0097769201 0.0374145784 -0.0221233887 -0.0807692377 -0.0205547445 -0.0735680346 0.1447474387 -0.0066925327 0.0596688304 -0.0352152671 0.0456130838 -0.0036000268 0.0504162344 0.1113443977 -0.0005430542 0.0283765907 0.0312043346 0.0930985178 0.0812079246 -0.0148741860 0.0381825216 -0.0466819030 -0.0906779161 0.0668094284 -0.0325670409 -0.0016156074 0.0462937560 -0.0669331015 -0.0209813136 -0.0216831515 -0.0893027343 -0.0045691190 -0.0856349630 -0.0476639548 0.0550975804 -0.0360517328 0.0241106435 -0.0023032310 -0.0694857655 -0.0380406834 -0.0438629481 -0.0428626286 0.0441507552 -0.0317756104 0.1139354492 0.0205537414 0.0139527809 -0.0525707481 -0.0307746306 0.0703756270 -0.0223534456 0.0351786860 0.1055203374 0.0620741241 -0.0581786111 0.0679882825 0.0117385352 0.0827743729 0.0595428622 -0.0776842949 -0.0021485470 0.0186904130 -0.0109648120 -0.0084154074 -0.0473050918 -0.0231913057 -0.0028147022 0.0937810633 -0.0414279637 0.0939708393 0.0906329443 0.0470201525 -0.0291447469 0.1076618867 -0.0313404654 -0.1008683293 -0.0184205190 0.1664474237 0.1489186459 0.0900061978 0.0862131447 0.1099747058 0.0107311650 -0.0353815568 0.0492405230 -0.0501744986 -0.0983304643 0.0254063851 -0.0091871097 -0.0346101745 0.0298752545 0.0042572854 0.0395038185 -0.0317314968 0.0544666110 -0.0344149401 -0.0917779261 -0.0085841720 0.0953021417 0.0186627044 0.1153606972 0.0698865744 0.0842918669 0.0179733578 -0.0512462928 0.1826027765 0.1326759032 0.1763783300 0.0293720740 0.1341289817 0.0482290645 0.0199425916 -0.1011563927 -0.1073887644 -0.1152119532 -0.1256643916 -0.0645715929 0.0170192743 0.0429902219 0.0577413337 0.0659534111 0.0000125136 0.0632007691 -0.0149722856 -0.0410661966 -0.0353155991 0.0510222187 0.0260433831 0.1147748138 0.0961824623 0.0409218819 0.0433659914 0.0644974522 0.0912341912 0.0597234497 0.1399953719 0.0767340776 0.0456037877 0.0497528737 -0.0373036763 0.0691493975 -0.0028445732 -0.1231128308 -0.0100019960 -0.0432270928 0.0008989145 0.0171978995 -0.0562070849 0.0843361957 0.0025381466 -0.0500711008 -0.1596451232 -0.0653116092 -0.0038769297 0.1145015667 0.0716281655 0.1168646288 0.1611133522 0.1487400402 0.0628369547 -0.0117950909 0.0639937488 0.1018854145 0.0864882706 0.0897662807 -0.0530546581 -0.0073908308 -0.0411287373 -0.0952988483 -0.0749182867 -0.0749287707 -0.0275156293 -0.0587935379 -0.0506817943 -0.0482249383 0.0295154801 -0.0234460483 -0.0383518518 0.0133914535 -0.1331177174 -0.1179701626 0.0359982170 0.0290762144 0.1194280882 0.0819455389 0.1543643580 0.0512886795 0.0759032263 -0.0453788361 0.0572101088 0.0678523312 0.0456938023 0.0356590295 0.0006979672 0.0977804892 -0.0651533552 -0.0542366799 0.0534555554 -0.0445152453 -0.1483741512 -0.0114370788 -0.0481864388 -0.0090690195 0.1157817891 -0.0299801890 -0.0292647676 -0.0952773901 -0.0990216346 0.0194622062 -0.0614565793 -0.0401130970 0.0008428247 0.0706743573 0.1328521804 0.1029843864 0.0299084927 -0.0144870294 0.0451863672 -0.0045148140 -0.1103589247 -0.0087058093 0.0289893855 0.0445570210 0.0515091070 -0.0005494908 -0.1051808756 -0.0419487396 -0.0490159916 0.0303975822 -0.0014023250 0.0366669713 -0.0073143108 -0.0936486936 -0.0055686491 -0.0756074935 -0.1484125686 -0.0039133377 -0.1158690218 -0.0425456853 0.0515751261 -0.0770056908 -0.0558676683 -0.0214186716 -0.1176829588 -0.0347486818 0.0401274143 -0.0658211972 0.0535712054 -0.0292467408 -0.0427486455 0.0209704271 -0.0631139108 -0.0754840068 -0.1385035276 -0.1470534522 0.0285963426 -0.0507361269 0.0208931356 0.0550528700 0.0389363679 0.0117122687 0.0020143721 -0.0336838519 -0.0176168201 -0.0728045640 -0.1033159087 -0.0571403336 -0.0669566581 -0.0429888525 -0.0550582736 -0.0896053642 0.0228319631 -0.0543409518 -0.0237977099 -0.0099285754 0.0084030728 -0.0284119224 0.0518372514 0.0354312548 0.0562768420 -0.1480004001 -0.0748517828 -0.0466439909 -0.0110229768 0.0284115363 -0.0507953647 0.0166370113 -0.0207691397 -0.0329858779 -0.0112075193 0.0015142586 -0.1327192804 -0.0976534263 -0.0621877250 -0.0606075993 -0.0475302670 -0.0260602004 0.0571408654 0.0275841518 0.0098480327 0.0306432052 0.0550374594 -0.1070184465 0.0308761908 -0.0738711801 0.0032936777 0.0402166050 -0.0794792712 -0.0523954753 -0.0040651424 0.0005153153 -0.0141607008 -0.0344833514 -0.0264937395 0.1001941954 -0.0317598883 -0.0571874402 0.0927404799 -0.1091259766 -0.0684573860 -0.0599134799 -0.0149139877 -0.0134352122 -0.0135698602 -0.0739793439 0.0281332038 0.0181989279 0.0933482134 0.0292821429 0.0601407370 -0.0452033428 -0.0259415629 -0.0295418236 -0.1030952171 -0.0091234984 0.0890521209 0.0106077454 0.0223235026 -0.0523217129 -0.0295925245 -0.0215063812 -0.0685822310 0.0111742375 -0.0492503731 0.0229073144 -0.0049151059 -0.0194036504 0.0043235014 -0.1083293713 -0.0749212143 -0.0560441550 -0.0597834154 -0.1336901048 0.0090035171 -0.0221059231 0.0455233273 0.0272836760 -0.0047360519 0.0804562500 0.0511471426 0.0607507077 0.0161231193 -0.0218147507 -0.0121533648 -0.0543149377 -0.0527521657 0.0006493485 -0.0046284621 0.1103045278 -0.0056953556 -0.0313379846 0.0204415294 -0.0151835030 0.0565795239 -0.1075733420 0.0628732980 0.0040620063 -0.0663399836 0.0838307441 -0.0571144915 -0.0034109186 0.0757911337 0.0372251321 -0.0040509349 0.0578172965 0.0051404801 0.0032840414 -0.0333392773 -0.0712064821 0.0387465640 0.0797102912 0.0341008183 0.0611541706 0.0330804659 -0.0049318033 -0.0263403445 0.0655066620 0.0158838652 -0.0925845217 0.0015429676 0.0408587955 -0.0390264941 0.0509293791 -0.0557748442 0.0395531048 -0.0767859833 0.0194492362 0.0433556521 0.0091421322 0.0643596104 -0.0428815920 -0.0365694073 -0.0076997319 0.0236480195 -0.0650314880 -0.0061301525 0.0021803144 0.0559408405 0.0071472647 0.0649939679 -0.0337964894 -0.0001318075 -0.0567397278 0.0276089707 0.0247437286 -0.0135775762 0.1036837732 0.0494772504 -0.1106052421 0.1400054102 -0.0395282894 0.0356094955 0.0136406206 -0.0173234119 0.0155952590 -0.0243638981 -0.1002481170 0.0460385025 0.0673612139 0.0353097470 0.0905229086 0.0427331546 -0.0382847627 0.0250380927 0.0213836966 0.0440512482 0.0150127820 0.1011772617 0.0101474091 -0.0450487083 0.0099312721 0.0525421509 -0.0074562985 0.0088397488 0.0328060470 -0.0108025387 -0.0118484113 0.0469270204 -0.0680335825 0.0666406969 -0.0745432667 -0.0117624845 0.0400309612 0.0363517569 0.0368860680 0.0811593718 -0.0152887837 -0.0182389558 -0.0488542646 0.0598841502 0.0646517745 0.0192894711 0.0497420029 0.0502169412 0.0430477427 -0.1170058681 0.0647141717 -0.0159735498 -0.0336434248 0.0232795684 0.0280221942 0.0894209174
